{"layers":[{"out_depth":1,"out_sx":24,"out_sy":24,"layer_type":"input"},{"sx":5,"sy":5,"stride":1,"in_depth":1,"out_depth":8,"out_sx":24,"out_sy":24,"layer_type":"conv","l1_decay_mul":0,"l2_decay_mul":1,"pad":2,"filters":[{"sx":5,"sy":5,"depth":1,"w":{"0":0.5296116984935738,"1":0.14688910997194726,"2":0.8455838969057401,"3":0.4137739030585681,"4":0.369778094964944,"5":0.2804613273660351,"6":-0.0593732153690175,"7":0.07878453485651629,"8":0.2547777143251009,"9":0.34709421960632336,"10":-0.2565992647817932,"11":-0.10505042169724031,"12":-0.426265507890855,"13":0.09887156498915153,"14":-0.2590195142081415,"15":-0.263448220406424,"16":0.061523204144969375,"17":-0.4962338009274334,"18":-0.45981437037197176,"19":-0.5814778243647006,"20":-0.14302670533498218,"21":-0.3616719700150183,"22":-0.6057080632241034,"23":-0.535804401284379,"24":-0.07760461025749694}},{"sx":5,"sy":5,"depth":1,"w":{"0":0.024834634394292492,"1":-0.33308417042480337,"2":0.05747631181971566,"3":0.3013183655085623,"4":0.14880523984062097,"5":-0.28902900417329386,"6":0.02536370168453706,"7":0.10709186593228043,"8":0.12175791994885894,"9":0.507126921372638,"10":-0.218703845024437,"11":0.07985406018312653,"12":0.32504730937489473,"13":0.16886273742230468,"14":0.1418257524355969,"15":-0.07104560068633409,"16":0.2530581044130509,"17":-0.03988921053795177,"18":0.08827519746920799,"19":-0.29122545789137283,"20":0.22172380602023742,"21":0.07132061215034538,"22":0.13719965009226104,"23":0.16741412357658636,"24":-0.12578688995320755}},{"sx":5,"sy":5,"depth":1,"w":{"0":0.015110371157664908,"1":-0.5267042615915336,"2":-0.353779725613017,"3":0.03537202659945195,"4":0.13681553118088932,"5":-0.11586230504609467,"6":-0.11964503135343392,"7":0.03934746440780404,"8":-0.32608971590520985,"9":-0.012240445726889712,"10":0.12931256569041374,"11":-0.2990178546215913,"12":0.036388334558149826,"13":0.12386682244780754,"14":-0.2466901473535434,"15":0.22209290470628396,"16":0.35242744314843205,"17":0.11271077492607492,"18":0.41299756589655845,"19":-0.20158919547194581,"20":0.20231445421482877,"21":0.35682208986663283,"22":0.35914410995745083,"23":0.18023617278435866,"24":0.026890241925843758}},{"sx":5,"sy":5,"depth":1,"w":{"0":-0.4138196621657306,"1":-0.2757849154064322,"2":-0.3538582769754207,"3":-0.18714928678662077,"4":0.049551869565076324,"5":0.05007435287279193,"6":-0.05662683558178622,"7":0.45269163513313454,"8":0.2752198110350323,"9":0.5955688499894799,"10":0.09858835512350467,"11":0.18579947030469895,"12":0.2997809444832586,"13":0.4382208740444176,"14":0.4741673071057883,"15":0.15548053379330193,"16":0.11033720558786334,"17":-0.06105229334471301,"18":-0.2348327729140463,"19":0.3010034829229676,"20":0.09004976452958399,"21":-0.0300048940071565,"22":-0.5335479220638218,"23":-0.21213825437612605,"24":-0.022362399540452226}},{"sx":5,"sy":5,"depth":1,"w":{"0":-0.6379342690753476,"1":-0.16671013653780087,"2":-0.30534489370891976,"3":0.2600151318291107,"4":0.3513710798181567,"5":-0.3817774335700518,"6":-0.07476850929953567,"7":0.06432000224037031,"8":0.14640296729667915,"9":-0.001939473401263519,"10":-0.4244898231695967,"11":-0.10118814618761418,"12":0.04296788943657661,"13":0.05093385800177666,"14":0.2613412533233962,"15":-0.18611286010718364,"16":-0.09641389105244967,"17":0.034920220789577246,"18":0.38318598062333026,"19":0.05761143849813766,"20":-0.08364490339296128,"21":0.12719704368603724,"22":0.05535315833886681,"23":0.0774212415052232,"24":0.009558668583822264}},{"sx":5,"sy":5,"depth":1,"w":{"0":0.09457424785787792,"1":0.2135260871701251,"2":0.2801730996664678,"3":0.14254367840314947,"4":-0.6016005578179987,"5":-0.18025519602627352,"6":0.1476501244020763,"7":0.44714197331979855,"8":0.0461153631943445,"9":-0.17899911580596264,"10":-0.10521778136149004,"11":-0.1735822539586945,"12":0.0810170639366059,"13":0.20592959676742895,"14":0.1557820206636231,"15":0.23797390763175783,"16":0.4403506180758049,"17":0.4127299485929075,"18":0.10538551426986863,"19":-0.06361023851140808,"20":-0.5362461443325611,"21":0.2666800376235499,"22":0.1942717746441437,"23":0.08409476234256594,"24":-0.10037745713050654}},{"sx":5,"sy":5,"depth":1,"w":{"0":0.19566182812147798,"1":-0.13008718675599393,"2":-0.38586458548549585,"3":-0.23258623541247395,"4":-0.24689267783674465,"5":0.21742089039977905,"6":-0.03676605432985518,"7":-0.5510637452495386,"8":-0.04945211621016971,"9":-0.3007650665920946,"10":0.005433170931075724,"11":-0.29060549442848205,"12":-0.45306912800999716,"13":-0.2795115856777147,"14":-0.01174897173717662,"15":0.3415828192395156,"16":-0.4010628341665388,"17":-0.031151201184094396,"18":-0.18741994499347486,"19":0.39855082490553284,"20":-0.10256236968976001,"21":0.21271636160346338,"22":-0.09365080894675502,"23":0.02059557128825585,"24":0.5712611259233652}},{"sx":5,"sy":5,"depth":1,"w":{"0":0.16899690731819442,"1":-0.5724832676410253,"2":-0.2807718758993428,"3":0.05451021539946706,"4":-0.17206318365592924,"5":-0.2898606948945312,"6":0.027790935769528798,"7":-0.16900720730907134,"8":-0.3404215329889348,"9":-0.2889406654512286,"10":-0.46805889026789876,"11":0.06292820793467847,"12":-0.1344079818126288,"13":-0.43701300049479963,"14":-0.4348348019884002,"15":-0.24925207932129398,"16":-0.2528643750017721,"17":-0.13106673904664445,"18":0.23384891891605458,"19":0.4029909955217805,"20":0.14768269873396248,"21":0.36759596739643524,"22":0.05013280774144144,"23":0.3695118164519382,"24":0.2905414332421744}}],"biases":{"sx":1,"sy":1,"depth":8,"w":{"0":0.2101130039370906,"1":-0.05363809249672342,"2":-0.0019921897380240482,"3":0.017415958062719162,"4":0.019697992897515993,"5":-0.05261788838515636,"6":0.09496351027504647,"7":0.11350190781267777}}},{"out_depth":8,"out_sx":24,"out_sy":24,"layer_type":"relu"},{"sx":2,"sy":2,"stride":2,"in_depth":8,"out_depth":8,"out_sx":12,"out_sy":12,"layer_type":"pool","pad":0},{"sx":5,"sy":5,"stride":1,"in_depth":8,"out_depth":16,"out_sx":12,"out_sy":12,"layer_type":"conv","l1_decay_mul":0,"l2_decay_mul":1,"pad":2,"filters":[{"sx":5,"sy":5,"depth":8,"w":{"0":0.009673715632044035,"1":-0.29090693979005516,"2":-0.29638113052801296,"3":-0.19024616694178118,"4":-0.09365943236409825,"5":-0.20131103993797336,"6":0.037812219926047816,"7":-0.11353176617464247,"8":-0.18178016459744012,"9":-0.14875678198175954,"10":-0.22478457276713174,"11":-0.052409186422162836,"12":0.09336073946322225,"13":-0.3210817501505648,"14":0.17623614763707324,"15":0.057063870775500576,"16":-0.226019915981229,"17":0.08862940321818684,"18":0.13914845215146093,"19":0.09779785030243712,"20":0.15213732800975102,"21":-0.05844943682892205,"22":0.07599677980335154,"23":-0.02887563647916675,"24":-0.14218990991306604,"25":0.25850831207117025,"26":0.112073141260595,"27":0.01423403958035785,"28":0.274817019397138,"29":0.09487896760686325,"30":-0.09164076071110931,"31":-0.18759871714897228,"32":0.18827909745234594,"33":-0.03335416934712358,"34":-0.10733763970951632,"35":-0.14928433671072408,"36":0.06253344298993423,"37":0.01965429327916663,"38":-0.01338190105755462,"39":-0.0987774191120517,"40":-0.02751535025202185,"41":-0.2446706125499922,"42":-0.2109890538751971,"43":-0.1400568160262476,"44":-0.25866680192112945,"45":-0.21688390693438475,"46":0.08630520438959015,"47":0.07209673934095205,"48":-0.19892647548428152,"49":-0.004657471402881828,"50":-0.15889720410051653,"51":-0.03073894974025813,"52":-0.005865781364608118,"53":-0.1837369969231991,"54":0.13760193560422543,"55":-0.04084722695736716,"56":-0.04942864562361528,"57":0.044971783123778135,"58":-0.14214640280251467,"59":0.11062603388148318,"60":-0.027828387179415916,"61":-0.08394023721848082,"62":-0.04378091962492603,"63":-0.11827269829602018,"64":-0.09806130318297725,"65":0.07648488256852737,"66":-0.04532598008925187,"67":-0.006233534172155343,"68":0.14433709104955442,"69":0.15006187847918057,"70":0.010776008230226366,"71":-0.12926985587350895,"72":-0.005176988317787525,"73":-0.34324283147410894,"74":-0.13945435351067084,"75":-0.31678723535994446,"76":-0.1148426927409024,"77":-0.03038733200639964,"78":0.017099987613111427,"79":0.041932087624192184,"80":-0.13544142587573002,"81":0.012485795530103136,"82":-0.12031366935563438,"83":-0.023487567482890565,"84":0.06990369042792864,"85":-0.04683741461583382,"86":0.11420112465316612,"87":0.1750428427775198,"88":-0.1276101168045671,"89":0.06003693663933452,"90":0.15740323536140632,"91":0.04343843273153487,"92":0.057366642214529,"93":0.0728908598799134,"94":-0.036895784303231864,"95":0.03754481490202459,"96":0.08769923915811541,"97":0.013802068663466864,"98":0.1393211489773072,"99":0.05169279678413143,"100":0.24065959416773827,"101":0.005799662194271366,"102":0.10233800094149739,"103":0.09627987883356522,"104":0.08347160773137151,"105":-0.02559177910607267,"106":0.047710289578307113,"107":-0.09495375677815908,"108":0.08103733037316885,"109":0.05046050605984643,"110":0.06660367294545855,"111":0.03210683298398171,"112":-0.09886008459916268,"113":-0.018819809962721975,"114":-0.17616549743419327,"115":-0.14295785514408846,"116":-0.12472973872043695,"117":-0.024406693088143194,"118":0.009311625806563154,"119":-0.06691771718020102,"120":0.03600734829766934,"121":0.07122647801362493,"122":0.04891552755901985,"123":0.099222683025108,"124":0.10149484444134711,"125":0.012198448154679397,"126":0.12700494882139862,"127":0.057517458189766876,"128":0.05707413366009067,"129":0.030833341099505668,"130":0.037199543494447936,"131":0.07001236495210444,"132":0.274776146104662,"133":0.07572443409400989,"134":-0.05979717767778213,"135":-0.19894589059294135,"136":0.025671236642084747,"137":0.0068507681837627,"138":-0.2153800061689883,"139":0.06199273961145706,"140":0.003322716253512027,"141":-0.10276810637099336,"142":-0.1967746361171776,"143":-0.009421822076190257,"144":0.058976531017583926,"145":-0.07785789661824175,"146":-0.11782380600334853,"147":0.009706320123262563,"148":0.04016071878124882,"149":0.002845045772557871,"150":-0.06683560613924273,"151":0.07360118679656961,"152":-0.15761052480541757,"153":-0.19388182222915917,"154":0.011685507296923765,"155":-0.08777563973964356,"156":-0.05735322058537855,"157":-0.1550293180868707,"158":-0.031555762578693185,"159":0.034601009378524776,"160":0.18039662382386906,"161":0.02084926758559196,"162":0.13877493619363282,"163":0.06733941155424082,"164":0.12152767525865142,"165":-0.008608728328116436,"166":-0.13715910376453747,"167":-0.010224681396619643,"168":0.20198148999165105,"169":-0.0889849165255997,"170":-0.07496571982046417,"171":-0.03243286930658276,"172":-0.14291044048066473,"173":-0.2380017168031766,"174":-0.10503814927077491,"175":-0.13117679615562794,"176":0.17532866092990426,"177":-0.16313024838716425,"178":-0.22141956633521329,"179":-0.13346309240536125,"180":-0.06054787291298798,"181":-0.19741292354112924,"182":0.030365763739287132,"183":0.1335632722132735,"184":0.10050749938167584,"185":-0.12400770591643012,"186":-0.19349939060214602,"187":-0.03540193179864585,"188":-0.12465192578010305,"189":-0.07140078211683457,"190":-0.1033844725105718,"191":0.030004366621350774,"192":0.03556245159140952,"193":-0.2141231046897512,"194":-0.1549413114874827,"195":-0.0680442733907428,"196":-0.24448083635127074,"197":0.022646960405337833,"198":-0.0932927609557635,"199":0.06051514425329325}},{"sx":5,"sy":5,"depth":8,"w":{"0":-0.20028509027889738,"1":-0.13000643321177824,"2":0.024783062251488595,"3":0.12079747017916133,"4":-0.20778193355546098,"5":-0.026192631899305437,"6":0.20520319208848342,"7":-0.06398652302634332,"8":-0.12173058481988049,"9":-0.168564272433996,"10":0.1192977236455641,"11":0.023369851262638894,"12":-0.2622258144552684,"13":-0.10014389273527613,"14":0.22711310816878028,"15":-0.07604332864807388,"16":-0.1979613241922113,"17":-0.14658084856674772,"18":-0.04115156492602982,"19":0.010034068727836708,"20":0.10193878963117338,"21":-0.11323871627985183,"22":0.049735164237190585,"23":0.056806293673452406,"24":-0.17043882775145383,"25":-0.23754784550590669,"26":0.1045853601989668,"27":-0.07417795775440308,"28":-0.08507945543143168,"29":-0.015471804236734252,"30":-0.04043793594849453,"31":0.10579550400603892,"32":-0.019389519273869848,"33":-0.026246054068050445,"34":0.040937836112393405,"35":-0.12972450850005532,"36":0.04604781137807019,"37":-0.031272650673940215,"38":0.15137307725760846,"39":0.017855538773227313,"40":0.00504941523738186,"41":0.0024526952640957535,"42":0.16596833333932845,"43":-0.06677079716332687,"44":-0.07131492102040655,"45":0.1427840879128149,"46":0.140385818888171,"47":0.10522243786884998,"48":0.10124481219028122,"49":-0.009382745932840409,"50":0.1839531132529562,"51":0.08958487086281323,"52":-0.011385381754872914,"53":-0.042773217889148674,"54":0.005473238491878136,"55":0.01051462491488112,"56":0.012780934108426156,"57":-0.05664626999873595,"58":0.13518517125217927,"59":-0.01271775200860622,"60":-0.15334891400574752,"61":0.024790267847795353,"62":0.1811751854497209,"63":-0.006910089129596122,"64":0.03906422463342258,"65":-0.09596148320627555,"66":0.1098619700503497,"67":0.050811276000482124,"68":0.02819626245124409,"69":0.1322446785382097,"70":0.08702233147405394,"71":0.14313352124639267,"72":-0.053072982722026714,"73":0.20793563644552812,"74":0.2061438901220062,"75":0.031945905488565386,"76":-0.05980690187038838,"77":0.14539309678514262,"78":-0.020451032925734462,"79":0.09982950867192679,"80":0.17370223139471008,"81":0.03738818934952072,"82":0.1009110712228254,"83":0.1894194498023617,"84":0.02579993507261385,"85":0.08241145788872348,"86":-0.15962696100276233,"87":0.030335067927082654,"88":0.19494308041489916,"89":0.05949263437226816,"90":-0.029416429985921075,"91":-0.0382136102057751,"92":0.16621633867952612,"93":-0.06625114754605357,"94":0.040522033619025566,"95":0.013637432603178276,"96":-0.0941241651248576,"97":-0.11355607038085003,"98":-0.10056068637182874,"99":-0.020683559343588398,"100":-0.09038415999857799,"101":-0.0251671073227704,"102":-0.08439184648450117,"103":-0.014740468551718433,"104":-0.33315650659232887,"105":-0.010372888841077923,"106":-0.08314877531186562,"107":0.019415499048249976,"108":-0.10683483544466746,"109":0.05845383033634403,"110":-0.0940945685391372,"111":-0.11858951977341368,"112":-0.3408441720828418,"113":0.14359592402857316,"114":-0.0281549271204699,"115":0.18116938916940536,"116":0.11424374774964167,"117":0.07058298613816058,"118":-0.11473935984677128,"119":-0.0399920752881186,"120":0.14540686042291942,"121":0.032246388246009644,"122":-0.045381503440544806,"123":-0.052230677675098994,"124":-0.03054847321273563,"125":-0.021473809048953355,"126":-0.0324124887879519,"127":-0.04893838791037416,"128":-0.027830606178792072,"129":-0.04041824185947272,"130":-0.12474770286087251,"131":-0.01723876653501831,"132":-0.071885654266857,"133":-0.0537489372306852,"134":0.07164785187182153,"135":0.09482235646933557,"136":-0.07048488922814301,"137":-0.13702924833859484,"138":-0.016020075084402,"139":-0.07683168825110522,"140":-0.0056437999570792576,"141":-0.1450468732991578,"142":0.01471317220985501,"143":0.03440503330422185,"144":-0.3942030255724707,"145":0.17115129032412724,"146":-0.14663276710559509,"147":-0.03275140791958311,"148":0.10902256346054685,"149":-0.04728129013206344,"150":-0.01775990642518101,"151":-0.20834196635388544,"152":-0.26135134823623085,"153":0.1375543765002445,"154":-0.11665333647958351,"155":0.13791959339576695,"156":0.011807183611849702,"157":0.13162181918393814,"158":-0.11928084241520838,"159":-0.11038106595653646,"160":-0.05684614470466468,"161":-0.11083495107315082,"162":-0.04852281034678668,"163":-0.12680507030928986,"164":-0.0006581240488851389,"165":-0.17309591760229515,"166":0.06669202490175345,"167":0.1386819756771773,"168":-0.06126062344546561,"169":-0.08820888963303404,"170":0.031112426322488767,"171":-0.11244387354596139,"172":-0.03334636489202637,"173":-0.05580849720656,"174":-0.07912260716035843,"175":0.08537075888033845,"176":-0.3165700087611869,"177":-0.05011339715749854,"178":0.08483624598663116,"179":0.09307450504646658,"180":0.07497019269031638,"181":-0.043888226113155425,"182":-0.08046303073788204,"183":-0.266321552064549,"184":-0.10013095714943439,"185":0.02796390886583187,"186":0.04970268310763509,"187":0.1392517598638168,"188":0.06305536588406072,"189":0.06499480135100442,"190":-0.08863579978568993,"191":-0.04165081375075801,"192":-0.20660431564738926,"193":0.00435237382591093,"194":0.09876737000917768,"195":0.06812506410851583,"196":0.08390147214672186,"197":0.25524458088694035,"198":-0.10832332247591278,"199":-0.12836883633841956}},{"sx":5,"sy":5,"depth":8,"w":{"0":-0.18779494144502798,"1":0.1301130123196775,"2":-0.021195734320345185,"3":0.03549729262606368,"4":0.09950948750704469,"5":-0.07298053361002721,"6":-0.031759265665318864,"7":0.0012934085451745026,"8":-0.18215378338581095,"9":-0.018528849970134834,"10":-0.14794801278027625,"11":-0.09682757223612078,"12":-0.04790788758622243,"13":-0.053982233042077034,"14":0.05620647888339439,"15":-0.0433956135741871,"16":0.11792898926756355,"17":-0.12403704597027067,"18":-0.07161916295949375,"19":-0.1258664101205795,"20":-0.21423726196131207,"21":0.002354212777644936,"22":-0.08837429925085201,"23":-0.0021992236385760806,"24":0.15030829023191694,"25":-0.1852732421118565,"26":-0.15197378595625785,"27":-0.14234819521367253,"28":-0.04890648478323342,"29":0.017837442801501503,"30":-0.08450227653698955,"31":-0.057699113914314364,"32":-0.11372682867461441,"33":-0.2712386334604147,"34":-0.10206358671850639,"35":-0.20714438159795265,"36":-0.1724594409170961,"37":-0.17213975366525255,"38":-0.062187692610800385,"39":-0.019197998285629216,"40":-0.1310349186911646,"41":-0.028233034629082384,"42":0.189295398663063,"43":0.021291340754588342,"44":-0.10117814183141363,"45":0.12197365228221706,"46":0.08213613982016513,"47":-0.07986571088168024,"48":-0.20790962708970007,"49":-0.052368778440560475,"50":0.20617967022057782,"51":-0.20900017270273163,"52":-0.2267684704022729,"53":-0.06910193867099344,"54":0.21834473339306915,"55":0.04542817748128766,"56":-0.17498101703811691,"57":-0.015923424477775627,"58":0.2108184847824012,"59":-0.15921609403734116,"60":0.06730953133802599,"61":-0.08911615963652122,"62":0.2622309451427296,"63":0.17335894083953696,"64":-0.059756481271141706,"65":0.016494702282369614,"66":0.32779150404501833,"67":0.026735763275611717,"68":-0.08594557373157025,"69":0.03446157984366012,"70":0.013419319000463026,"71":0.19048534857698204,"72":-0.10140371854146045,"73":0.030093242256593107,"74":0.23040731342134876,"75":-0.03702618139075549,"76":0.01911310412133317,"77":0.20178681743675442,"78":0.1406993214947062,"79":0.19263785991075313,"80":0.006355565920542769,"81":0.0684888730892624,"82":0.03200734224654677,"83":0.0313177168317333,"84":-0.06300149832787372,"85":0.054142093364288504,"86":-0.06152383354833636,"87":0.04894966869260469,"88":-0.17741101020575784,"89":0.0710355635509045,"90":0.08938924441005054,"91":0.10625101646906887,"92":-0.09535045317486646,"93":0.07431636069894704,"94":0.07326330039512093,"95":0.07708790088816103,"96":-0.199806462940802,"97":0.11022944225032219,"98":0.16690639014962488,"99":0.2671485886898354,"100":-0.061360377333149654,"101":0.21698903480531434,"102":-0.19029009956298032,"103":-0.041347637603850775,"104":-0.17885679859194648,"105":0.09993728743131111,"106":-0.0736566698084296,"107":0.4057283845302827,"108":0.08859199638060383,"109":0.18416539003539248,"110":-0.19513233997632398,"111":0.01813365661116569,"112":-0.16732290219747564,"113":0.10487859981817348,"114":0.10670563737936473,"115":0.27114024344225246,"116":-0.015531933439682606,"117":0.15114013287157024,"118":-0.11305934266315935,"119":-0.30259430346000477,"120":0.2839289916411951,"121":0.029215867185069286,"122":-0.23084917306838282,"123":0.03490231947681003,"124":-0.032389656380757616,"125":-0.008501929547418399,"126":-0.17971999951845163,"127":-0.2645831816363534,"128":0.2521577432061613,"129":0.07949772894862207,"130":-0.08481496050086805,"131":0.0003930160965384495,"132":-0.18123268737564785,"133":0.026522962010465438,"134":-0.2644324934562427,"135":-0.2392176478574956,"136":0.012747891556025188,"137":0.015708062795367093,"138":-0.15217176739189012,"139":-0.005228507239041394,"140":-0.198441920954737,"141":-0.08357891352556643,"142":-0.27743418094188493,"143":-0.11302477685696026,"144":0.1423796185184659,"145":-0.06283980881264566,"146":-0.2527773168997292,"147":-0.09803347405276305,"148":-0.19074897568976446,"149":0.12988106009649414,"150":-0.19344372055612116,"151":-0.09641180123539883,"152":0.10698593553864984,"153":0.08338712120672484,"154":-0.09938714799939345,"155":-0.019095224816519683,"156":-0.23255252138301716,"157":-0.09825165685904033,"158":-0.28690715440737335,"159":-0.07696931607672534,"160":-0.011729119982084386,"161":-0.12278652452744576,"162":-0.17360933252831778,"163":-0.2223460371253761,"164":0.010818019281808578,"165":-0.15743893864441708,"166":-0.07324120959966549,"167":0.014938551481560947,"168":0.09070688223073804,"169":-0.0737292360219378,"170":-0.14112423423583725,"171":-0.45778250798308184,"172":0.009318993352431923,"173":-0.04811662384281181,"174":0.039375605450980594,"175":0.09260451145905356,"176":-0.0012446364021667343,"177":-0.20324569687233954,"178":0.06324997868101105,"179":-0.2663897441633726,"180":-0.016867652160198473,"181":-0.0763313836072535,"182":0.1886912537059179,"183":0.2621683988571417,"184":-0.09701844193409694,"185":0.09814450503884993,"186":0.17231563743630213,"187":-0.13273958431226293,"188":-0.01859563678665836,"189":-0.12319843967620667,"190":0.08850027008246757,"191":0.19721425333772843,"192":-0.07538515795787264,"193":0.0019559515861738313,"194":0.1314584504111938,"195":-0.09491335731974263,"196":0.04106205197841157,"197":-0.0036031579029044535,"198":0.03186191353631432,"199":0.11900009852691583}},{"sx":5,"sy":5,"depth":8,"w":{"0":-0.12905927152056865,"1":-0.03754684410917882,"2":0.05727619829709434,"3":0.0511700806878931,"4":-0.09541245684302299,"5":0.13612065348196584,"6":0.06596403661402131,"7":-0.09761057900430832,"8":0.107004445320807,"9":-0.0003257526793673511,"10":0.010612289597927621,"11":0.15336972229995116,"12":0.04122027906122179,"13":0.013020363628370911,"14":0.05723456192036047,"15":-0.00546976384987165,"16":-0.06981904868393518,"17":0.11841697291144938,"18":-0.07264854560175521,"19":0.09343429828868677,"20":-0.027466072719523733,"21":0.06816534481161589,"22":-0.021762447902624788,"23":-0.13643909678761673,"24":-0.18145342177068985,"25":0.06357965299842004,"26":0.0817880552456195,"27":0.004778235674437141,"28":0.08359612196442656,"29":0.15675131430526026,"30":-0.14098907884401285,"31":-0.21341093125302893,"32":-0.05732066578667404,"33":-0.055782592335162334,"34":-0.06871960197543102,"35":-0.11238130112913534,"36":-0.12989970832771763,"37":0.03316590243711905,"38":-0.06667471914168177,"39":-0.1081447865541389,"40":0.00017597426509533551,"41":0.032258958581425974,"42":-0.05965185366262412,"43":-0.19836994604078684,"44":0.04333758568248798,"45":0.003467177931328383,"46":-0.10854027400718118,"47":-0.14712300712181225,"48":-0.03999697677727414,"49":-0.06073521142623724,"50":-0.022391784653242517,"51":0.037059125796427075,"52":0.0533760764198526,"53":-0.11902370947678469,"54":0.08711748184378093,"55":-0.24283536294622515,"56":-0.21523190695868277,"57":0.048869500166110594,"58":-0.12841668774327722,"59":0.030481375402509066,"60":0.1300089566934164,"61":0.015552541132127574,"62":0.016225257731535398,"63":-0.27865620181297224,"64":-0.27379092195121574,"65":0.0017512176601681443,"66":0.06745418315791062,"67":-0.036406726076789124,"68":-0.03946366380676872,"69":0.14549259654002353,"70":-0.15699790147585402,"71":-0.13606760710969698,"72":-0.11587576555100741,"73":-0.12330894496218,"74":-0.053289713301695324,"75":-0.20006843357976675,"76":-0.2197962683563108,"77":-0.07895607424997629,"78":-0.007021733855956213,"79":-0.24544639662057094,"80":-0.05280755008723495,"81":-0.001157076518491179,"82":0.07754502845485839,"83":0.013541221417165978,"84":0.001625174210909739,"85":0.16605707339912948,"86":-0.1798102808621731,"87":0.00345509813684703,"88":-0.03875984787007674,"89":0.014401019768944756,"90":-0.17989417011802242,"91":-0.08460457972611678,"92":-0.0937479909316805,"93":-0.2874154749182226,"94":0.15673660452339866,"95":-0.10858258275513231,"96":0.005226791429326716,"97":0.07421643007702847,"98":-0.31131106238411627,"99":0.1550455908382025,"100":0.12744058420435653,"101":-0.005530820833356487,"102":0.046227529402587626,"103":-0.15812546016065163,"104":-0.2959889285630375,"105":0.001380500733317065,"106":-0.0688885197681949,"107":-0.00039826822391203346,"108":0.13723166115942811,"109":0.3216211273075227,"110":-0.1302660139518714,"111":-0.09433007485398748,"112":-0.29806248476016145,"113":-0.17248788047108513,"114":0.01951679950442369,"115":-0.11688948037861818,"116":-0.17952562668475278,"117":0.10607992362949524,"118":0.07615627947502593,"119":0.016209777455572855,"120":0.05631069524866275,"121":0.017099848713280304,"122":-0.1285394699558718,"123":-0.07596697327374659,"124":-0.1435853845735693,"125":0.07645116118774145,"126":0.0232801465146072,"127":0.07534093649249211,"128":-0.007451769216708687,"129":-0.2504219924057992,"130":-0.013180598302250431,"131":-0.1680983947959467,"132":-0.12465217249265471,"133":-0.20952851506405787,"134":-0.0013717338469613294,"135":0.08524325073385441,"136":0.019363842150586105,"137":0.012858776059833828,"138":0.03535536451267448,"139":0.22670395262967263,"140":0.12795857866879345,"141":0.10449824441914658,"142":-0.017410454450701808,"143":-0.006538947555595784,"144":-0.10600070897852154,"145":0.12301620398210956,"146":0.004001935550213326,"147":0.17743315053152203,"148":0.09158861022070013,"149":0.08134202869880015,"150":-0.11300296345602616,"151":-0.1515369066776336,"152":-0.2922116559493073,"153":-0.0354895526546602,"154":0.12852167823993818,"155":-0.10728138196010754,"156":-0.052463982559526674,"157":0.06371389948391243,"158":0.09301752825156553,"159":0.139716219730602,"160":0.027959353657776305,"161":-0.17728907958491102,"162":-0.11710961852690328,"163":-0.2213912198688522,"164":-0.2304209697161205,"165":-0.09166447886930276,"166":0.010762144455519441,"167":0.09650267808468943,"168":-0.04152388318332143,"169":-0.06577963825353275,"170":-0.19229986966391144,"171":-0.24255085350984804,"172":0.06634332580910125,"173":-0.08503636411761285,"174":0.06685206526513066,"175":0.06800358819217668,"176":0.01473991374523307,"177":0.1562917696536961,"178":-0.0458511983667856,"179":0.04872907264744032,"180":0.07620140704238129,"181":-0.19851068835823193,"182":-0.20610938220315547,"183":-0.12171145731476103,"184":0.21974140686682817,"185":0.11117630799541849,"186":-0.19965408910675317,"187":0.17284308932552528,"188":-0.016505512044150204,"189":0.02289802328952461,"190":-0.23763617306634047,"191":-0.020948000046760028,"192":0.13215474303853086,"193":0.0627644603285908,"194":-0.28046641705738523,"195":0.20654789216214528,"196":-0.024301671545852756,"197":0.18380169194684165,"198":-0.2605992518255129,"199":-0.08736790902636588}},{"sx":5,"sy":5,"depth":8,"w":{"0":-0.27905860932617405,"1":0.011028069356494564,"2":0.0939027398586747,"3":-0.0430357609833617,"4":-0.021661432824444504,"5":-0.1169516324546908,"6":0.01987192727751242,"7":0.02609914340820193,"8":-0.018555987327619285,"9":0.033056820127468016,"10":0.0478724108821122,"11":-0.09551040306296532,"12":0.0659330417413519,"13":0.18396176056433472,"14":-0.01555076927232784,"15":-0.034207291867781216,"16":0.005805835128872554,"17":-0.08594655738143732,"18":0.20339697179952623,"19":0.0596846799557637,"20":0.1624277569039209,"21":0.07510657893784872,"22":-0.012880593143457589,"23":-0.11026169561529031,"24":-0.009002562668994405,"25":0.09693634452464575,"26":-0.017564192266925727,"27":0.0766682994876873,"28":-0.022174965034675646,"29":0.10393859599730759,"30":0.1525501929400842,"31":-0.1182086530840205,"32":-0.08245440820797799,"33":-0.024250600896005167,"34":0.08387123964020636,"35":0.1253665003340523,"36":0.20738904853125908,"37":0.02847494377483389,"38":-0.01835290071646473,"39":0.04657191601735981,"40":0.15696990156241913,"41":0.010337703693603546,"42":-0.00037356892067134874,"43":-0.013418764947708144,"44":-0.11368936674661274,"45":0.02006033551544697,"46":-0.2116757038432838,"47":-0.11510277145936659,"48":0.1213926977834248,"49":-0.0664333037209328,"50":-0.03847104040144641,"51":-0.05376337881611087,"52":-0.019787784041185152,"53":0.025207946149278983,"54":-0.07342298424764962,"55":-0.11577392539989184,"56":0.08906057113185387,"57":-0.04089307607780867,"58":-0.03443420002701702,"59":-0.017012778657444157,"60":0.15711660430610289,"61":-0.10140920443686359,"62":0.06829260236844811,"63":-0.01598329766764586,"64":0.009309225304911874,"65":0.1285133663425386,"66":-0.15749280306846597,"67":-0.04534034383181939,"68":0.09403716952814772,"69":-0.09595149015771016,"70":-0.05499822930780561,"71":0.05014362894843737,"72":0.2112326455545001,"73":0.02720691908149717,"74":-0.225869132137286,"75":0.3238765840855252,"76":-0.0007521223537745674,"77":-0.1842670579541414,"78":-0.1802779914574678,"79":-0.19935731974623952,"80":0.07949344927921584,"81":-0.1495178277751807,"82":-0.05863724685875169,"83":-0.19978453212814168,"84":-0.18720022888752638,"85":-0.10349362617657544,"86":-0.040398671044815086,"87":-0.016109248005592165,"88":0.1178226431590682,"89":0.02010180103618309,"90":-0.0017653076288421461,"91":-0.1758129801429346,"92":-0.08859842970338286,"93":-0.14810590299978754,"94":-0.08554653155214399,"95":0.017322951025624835,"96":0.02605242414343473,"97":-0.24041486585928515,"98":-0.06343082928833986,"99":-0.22039224769420912,"100":-0.04360528619036234,"101":-0.06231703816535388,"102":-0.15458918830362162,"103":-0.10180254806911032,"104":0.10928939125406557,"105":-0.1967120169529614,"106":-0.07068099654781634,"107":-0.16006417483191862,"108":-0.1893728939582941,"109":-0.193483920449317,"110":0.03482650349672283,"111":0.01875046475012347,"112":0.34707051991709,"113":-0.014984341674959708,"114":-0.19858080160617747,"115":0.014352383491056227,"116":0.25663978577421187,"117":-0.16031706113391683,"118":-0.2939190196956774,"119":-0.21532723043205146,"120":-0.10001766650217132,"121":-0.16973300636698962,"122":0.03493827870990191,"123":-0.09975228791316414,"124":-0.09593959233781256,"125":-0.0243005823353011,"126":0.05379687872896913,"127":0.10072531858294759,"128":0.004081096550232546,"129":-0.09511397573108553,"130":0.16709538353673897,"131":-0.08718827089796624,"132":0.027811425793370013,"133":-0.30725731070873474,"134":-0.005749774683663092,"135":0.058045999954500896,"136":0.029190185810558662,"137":-0.058348800442760515,"138":-0.1614861046519361,"139":-0.1766575997904324,"140":-0.08565437077307458,"141":-0.12405337770638675,"142":0.04612761251461301,"143":0.11574732175139597,"144":-0.12662284291244127,"145":-0.14057187180185604,"146":-0.043082880139088925,"147":-0.2439933355776619,"148":-0.049182175744008995,"149":-0.2249844227350838,"150":-0.08808914779287881,"151":0.026850688312602962,"152":-0.18357890693322895,"153":-0.038354128001970994,"154":0.00809508763228382,"155":-0.07099323573179166,"156":-0.0658690270141856,"157":-0.15627050423540273,"158":0.17862986395012329,"159":0.09221313746751245,"160":-0.10814888424154098,"161":0.03307176276331656,"162":-0.009442043799724558,"163":-0.027172010705994853,"164":0.023351776242555387,"165":-0.06892940518483844,"166":0.18040555343088605,"167":0.01779093996430448,"168":-0.10919101502720183,"169":-0.05093847587304568,"170":0.1007690146005282,"171":-0.22294968564239043,"172":0.05585169523587271,"173":-0.12882513794397957,"174":-0.0464463897916147,"175":0.12352946541186298,"176":-0.1990796150804447,"177":-0.1639152334434201,"178":-0.012353478661819507,"179":-0.07624030361998892,"180":0.058400549283557236,"181":-0.06569756813318813,"182":-0.060030756601710866,"183":0.10987923564786928,"184":-0.07655454940070318,"185":-0.028805507405347135,"186":-0.04476252314158074,"187":-0.05161507178244674,"188":0.054570704935565796,"189":0.13186123572242606,"190":0.2586929191163787,"191":0.1748642603261534,"192":-0.07706109098436045,"193":0.12548025683510364,"194":0.04121740295825539,"195":-0.15239176641808155,"196":0.044844496863471195,"197":0.04084615953142618,"198":0.22685980862021787,"199":0.15131293062259593}},{"sx":5,"sy":5,"depth":8,"w":{"0":-0.14164970396652676,"1":-0.1756552230831087,"2":0.28247767278418306,"3":0.15974449387842907,"4":-0.30001630226304254,"5":0.21549166887630763,"6":-0.022359647597829897,"7":-0.0746720230584283,"8":-0.28639755947308626,"9":-0.06912210484185667,"10":0.1569605151855146,"11":0.08520417009618282,"12":-0.0911250291276387,"13":0.01351996493487911,"14":-0.11696093699292161,"15":-0.08862420497219085,"16":-0.20665549722350687,"17":-0.09915846781491451,"18":-0.07193060758903255,"19":0.08256918340793176,"20":-0.12134115369952582,"21":-0.1270236631730499,"22":0.06192546240097429,"23":-0.25104094497752416,"24":-0.0522973172710042,"25":-0.00162144567978249,"26":-0.11356712005185338,"27":0.0641811864015248,"28":-0.03529765429467013,"29":0.07829418738847105,"30":0.06874301753525781,"31":-0.006073121831422089,"32":-0.20968305442017196,"33":-0.1261425743845902,"34":0.09338116466716373,"35":-0.062148108584218376,"36":-0.15579357592089055,"37":0.07989007103550283,"38":0.12718045069919334,"39":0.16859894564442032,"40":-0.15776090077458435,"41":0.1026382179721674,"42":-0.03496894907760578,"43":-0.09219023084600354,"44":-0.12509228997613925,"45":0.1262944840336888,"46":-0.2240985428468193,"47":-0.14177381676336367,"48":-0.019741053389844762,"49":-0.009609084958349943,"50":0.0249700869761271,"51":-0.031103833722883813,"52":0.010519320230925422,"53":0.08469397703272544,"54":-0.11207687113225975,"55":-0.24944129030382217,"56":-0.18097245192770378,"57":-0.006641559593689108,"58":-0.15956557375876232,"59":-0.00007776799779628404,"60":0.04638741350141313,"61":-0.13474828863783192,"62":0.11656323339752118,"63":-0.13858132178210403,"64":-0.027592366853141474,"65":0.0370792536550447,"66":-0.09427824957535492,"67":-0.023770676847099444,"68":0.015373200239668445,"69":0.08461443828132682,"70":0.06061484030598115,"71":0.09451127790405882,"72":-0.2202106995696231,"73":0.1279388141359312,"74":0.06110351992850815,"75":-0.028779385682112302,"76":0.07973242888940146,"77":0.1368210407587216,"78":-0.053104668647282076,"79":-0.20561256295135497,"80":-0.17624980697788595,"81":0.3326678666716247,"82":0.15525939543764652,"83":0.08886793277131333,"84":0.07621279404596364,"85":0.3264313294088425,"86":-0.09597130000316675,"87":-0.17443237556394456,"88":-0.050020435995198086,"89":-0.07397388360435614,"90":-0.24206162894907327,"91":-0.12798354455681485,"92":-0.013125860077891622,"93":0.0699905642450213,"94":0.07746105929855794,"95":-0.1191779351232764,"96":0.0641621074981167,"97":-0.19544625724241887,"98":-0.19322435963502785,"99":-0.0440295403048281,"100":0.043040629552065696,"101":-0.20882827971661555,"102":0.23014566414950569,"103":-0.0527737146719462,"104":-0.3270735442813042,"105":0.14121425955109104,"106":-0.08421534343963409,"107":0.03744952037853928,"108":0.1055224808168047,"109":0.1067608579275084,"110":-0.027118348509857455,"111":0.09144283651262133,"112":-0.12043715922279212,"113":0.06485360213320773,"114":0.03865953219706626,"115":-0.04085859195484809,"116":-0.06735719439290055,"117":0.1549277793628288,"118":-0.21801810328161497,"119":-0.21667807026240857,"120":0.02248397391853435,"121":0.1931175667020984,"122":0.059383282762217514,"123":0.12124837051367375,"124":0.11751575492452342,"125":0.053663681688661785,"126":0.06568472281728152,"127":-0.003893178000841208,"128":0.002376782368982237,"129":-0.09729464803659382,"130":-0.19303388035356,"131":-0.1311802518843447,"132":-0.04615662430087117,"133":-0.09262767565618304,"134":0.15876568182816625,"135":0.07552794380597604,"136":-0.1906474425626627,"137":0.05727318441555829,"138":-0.0978661864657848,"139":0.09106736360828481,"140":0.10523114620376331,"141":-0.24747622222472543,"142":0.23942682027330014,"143":-0.10220174347310915,"144":-0.3931900102136949,"145":0.08035430494485453,"146":0.08974372481776745,"147":0.0581391795936119,"148":0.10950879412347217,"149":0.14868173175080607,"150":-0.1634865515247186,"151":-0.08555326346093593,"152":-0.22422090596562747,"153":0.00513184244616386,"154":-0.05231831370782385,"155":-0.2969439571624168,"156":-0.05379871333584164,"157":0.11605032847573668,"158":-0.029651280533985486,"159":-0.1453560171581262,"160":0.10365371368346629,"161":-0.11167938241580988,"162":0.1005464489626195,"163":-0.10733257829824117,"164":-0.1473541718152934,"165":0.08516437119984209,"166":0.11459747660752947,"167":0.0448181765714194,"168":0.00669738338010274,"169":-0.16575129451956516,"170":-0.10980301686269017,"171":-0.13673551688458319,"172":-0.09262491042594823,"173":-0.13191892456702772,"174":0.036286306703658,"175":0.08527533744227092,"176":-0.1962342640097974,"177":0.07586211231259005,"178":-0.03552524925045775,"179":0.026819747629121492,"180":0.16996189763075276,"181":-0.28437311852904834,"182":0.04809565714520709,"183":-0.061836705994594704,"184":-0.34564234447930564,"185":0.10550179797237341,"186":0.09579462980754269,"187":-0.03222877422597763,"188":0.12942217309046478,"189":0.11006787182250367,"190":-0.02659044018076481,"191":-0.16982852306936516,"192":0.007036300736789264,"193":-0.021555451326448257,"194":0.01818462686329876,"195":-0.045257223186566636,"196":0.0784494132617202,"197":0.22225099001321127,"198":-0.027169561761176735,"199":-0.15787543219490238}},{"sx":5,"sy":5,"depth":8,"w":{"0":-0.30060385394443406,"1":-0.026192014973872486,"2":-0.02339770485657719,"3":-0.06878408047405599,"4":0.044335896467369115,"5":-0.02323595161252751,"6":-0.026890765748188123,"7":0.0832934511996314,"8":-0.23807739846295867,"9":-0.023118738809730137,"10":0.10322197561554095,"11":-0.010705923277902249,"12":0.11538342618972007,"13":-0.011449710264524583,"14":0.06607190249310366,"15":-0.09060066394592424,"16":-0.23647542326636564,"17":-0.08508077932760774,"18":-0.04382454312764129,"19":-0.06871037324489074,"20":0.0928664838563188,"21":-0.21418922457347855,"22":0.16790648547001202,"23":0.03579618635364361,"24":-0.14463424261621477,"25":0.10768710532321098,"26":-0.07596969469935579,"27":0.0150258789971452,"28":0.14969944531428808,"29":-0.05324921287349139,"30":0.0383216486360845,"31":0.04761241272696589,"32":-0.1404634415561873,"33":0.27752503214278773,"34":-0.05732294423875258,"35":0.2053295562302584,"36":0.12485640450911754,"37":0.011706494555433994,"38":-0.03031966224288653,"39":-0.16951043587263218,"40":-0.12726264226045758,"41":0.13299069390124402,"42":0.0624378055091911,"43":0.06436853836904113,"44":0.0896020517110871,"45":-0.018481414949549645,"46":-0.1620297082527493,"47":0.0204360699954885,"48":-0.12978071485263928,"49":-0.011688577767274983,"50":0.011955973481868708,"51":-0.07488512667155961,"52":-0.03175929818739028,"53":0.15943528511894386,"54":-0.06303307685801804,"55":-0.04297900506276325,"56":-0.16957271877489524,"57":0.04729798717837522,"58":0.02945016076434838,"59":0.02616487455369777,"60":0.0487808605408957,"61":-0.11412260808143528,"62":-0.11092328503510278,"63":-0.15440392038407283,"64":-0.0621070428614569,"65":0.048140789796443574,"66":-0.08842718330986384,"67":0.02247772107885163,"68":0.19688343744135225,"69":-0.06491676785509456,"70":-0.14668765192588537,"71":-0.21241952726266655,"72":-0.3643524715705899,"73":-0.03755124651971415,"74":-0.16588768806357454,"75":-0.08169031616141365,"76":0.08159091859216784,"77":0.23320138922439815,"78":-0.02364796608896659,"79":-0.10558281249457867,"80":-0.20936494719568524,"81":0.08389112087052225,"82":0.024133475262206137,"83":0.04693946254379706,"84":-0.023330766193521587,"85":0.28396325470545297,"86":-0.06928061744819475,"87":-0.15219702450910105,"88":-0.2060477996577666,"89":0.03399648062430929,"90":0.03148876984303763,"91":-0.27119236908427896,"92":-0.07407148082874321,"93":0.052721134511042364,"94":-0.09744672356592371,"95":-0.14352711973200308,"96":0.016402808169314904,"97":-0.04791536001954473,"98":-0.28852841839610444,"99":0.02493415245601525,"100":0.022333383575494723,"101":-0.1354239841613827,"102":0.022502647532694806,"103":-0.21606962973390823,"104":-0.05211088945838685,"105":0.019306575119637986,"106":-0.2604436962447317,"107":0.1744749616536048,"108":0.042307732381243315,"109":0.019087650728207926,"110":-0.1637294111198889,"111":-0.03332366166113985,"112":-0.16384487204424478,"113":0.01063232510954095,"114":-0.0758216815046701,"115":0.02666506966011651,"116":-0.10660043275232722,"117":0.14362589049430097,"118":-0.016598938314682336,"119":-0.06610897926287017,"120":-0.04674477683486587,"121":0.039594607764087214,"122":-0.0957468534414115,"123":0.017494439611681675,"124":-0.01608986835109498,"125":0.04501797516897186,"126":-0.04824330880528894,"127":-0.12130314810110576,"128":-0.05598076220897987,"129":-0.07712426446472076,"130":0.09528521902447731,"131":-0.13567374820773162,"132":-0.00724020191170778,"133":0.020808289926723466,"134":-0.15634812785779795,"135":0.0880157075076066,"136":-0.12686941541295352,"137":-0.002285978124467418,"138":0.0192374392512659,"139":-0.09677973950896955,"140":0.08355941491949291,"141":-0.07380326479703984,"142":-0.0919755022584263,"143":-0.17456248698832758,"144":0.08976036072198418,"145":-0.044660633355943266,"146":0.07408795375113744,"147":0.08819884236328374,"148":-0.055128833382280876,"149":0.023784529507785892,"150":-0.16297677136563704,"151":-0.03344861567722051,"152":0.3670367166404527,"153":-0.06490219686416147,"154":-0.20140907093912627,"155":0.06483104254160889,"156":-0.04823692561404334,"157":-0.014852325204930879,"158":-0.22416095744099554,"159":-0.012430964891686038,"160":-0.04215205724985188,"161":0.19888708452095893,"162":-0.060234838996193356,"163":0.08052626308909532,"164":0.07859939361733884,"165":0.053459287472712884,"166":-0.09802314689100587,"167":-0.024613297218077052,"168":-0.029802646655887145,"169":0.05247177646548966,"170":0.11066840850168361,"171":-0.18913763564007322,"172":-0.0521445907273508,"173":-0.03298743920605979,"174":-0.08168340384531457,"175":-0.04489157725167166,"176":-0.03240692716702474,"177":-0.12753311563882258,"178":-0.05566921236986954,"179":-0.18345098711156524,"180":-0.17517883911524856,"181":-0.19355893041417188,"182":0.0034395054051164307,"183":-0.06692383503036284,"184":-0.08233540103695242,"185":-0.1147926116497264,"186":0.05499350030643674,"187":0.02061491120380044,"188":-0.0823689340456069,"189":-0.0034196936991096254,"190":0.07284913985531415,"191":0.0031303456941997607,"192":0.0863337290123791,"193":-0.14462866079875794,"194":0.06356322781780206,"195":-0.10220500321089743,"196":-0.045499581383074514,"197":-0.04959398349613983,"198":-0.024194831314696817,"199":0.14189344349973826}},{"sx":5,"sy":5,"depth":8,"w":{"0":0.16294093262635845,"1":-0.02853268745417066,"2":0.0075808077113896115,"3":0.08757298973436446,"4":0.11930283755878378,"5":0.006586857919099477,"6":-0.023894714538766328,"7":-0.1297636725617271,"8":0.13156059010132498,"9":-0.019317422882690356,"10":-0.14600806060943586,"11":-0.002469733779590965,"12":-0.017994574315778528,"13":-0.07305502912431319,"14":-0.09489993777683567,"15":-0.18672460898491122,"16":0.0001680448029248553,"17":0.03603643318311856,"18":-0.12911498262727397,"19":-0.04631570113503265,"20":-0.04178626617978735,"21":-0.02700640509201917,"22":-0.21087627701760261,"23":-0.10704360009652354,"24":0.01700369422100906,"25":-0.04057388608966024,"26":-0.003858512082693409,"27":-0.1073047508078404,"28":-0.13714517891684155,"29":0.06829558927258222,"30":-0.15958836011498934,"31":-0.22201008321788385,"32":-0.19827255099339616,"33":-0.04754713437193219,"34":0.02615318477977417,"35":-0.16138413441961025,"36":-0.12994008032184684,"37":-0.020920681163149126,"38":-0.13125345809498057,"39":-0.21704656763742802,"40":0.14118248939460937,"41":0.03878601877466064,"42":-0.14748362171330345,"43":-0.16906406763156878,"44":-0.00020098544181261328,"45":-0.003995083875024008,"46":-0.041149367602726916,"47":0.015643216427754163,"48":0.057924755108219206,"49":-0.0351050744963613,"50":-0.0095392755742876,"51":-0.11022395052079062,"52":-0.09142142687472461,"53":-0.08267454731197427,"54":-0.03323628814964778,"55":0.07238286814227902,"56":-0.03797649425131506,"57":-0.10173955843465274,"58":0.13641124937767413,"59":-0.023178942428997085,"60":0.07463464596090745,"61":0.014203034287245302,"62":0.07470445224311978,"63":0.008984447192462162,"64":-0.21271686215384594,"65":-0.12463247567020347,"66":0.045555680670629616,"67":0.09469934807064549,"68":-0.0723817581424788,"69":-0.0640059669317748,"70":-0.13880879980716637,"71":0.05698504287331399,"72":-0.11033137166461573,"73":0.13632396560243307,"74":-0.05039064549974857,"75":-0.04837660915979837,"76":-0.1038097924313598,"77":0.041152584541340985,"78":-0.0458467396698057,"79":-0.31951095253411266,"80":-0.2311282190750624,"81":-0.027755468119979327,"82":0.20028317097223422,"83":-0.05176182640984851,"84":0.020250462228069546,"85":0.13238880418244736,"86":0.08607160863845635,"87":0.16124663769437103,"88":-0.26718384523703836,"89":-0.015051483436712258,"90":0.09778415495148786,"91":0.09778753720859573,"92":0.06275203503055989,"93":0.04832610766005979,"94":-0.0455039607397908,"95":0.11001035736369259,"96":-0.2507837148615508,"97":-0.06756015183082968,"98":0.05447282927802215,"99":0.15176547880453053,"100":0.017916762725506498,"101":-0.06268987922330879,"102":-0.0069495793001239994,"103":0.08001227763936655,"104":-0.11952052881242652,"105":0.01664533397571442,"106":0.11841451069081481,"107":-0.015292867981663006,"108":0.04252046497553631,"109":0.08127314010760096,"110":-0.047554662292619065,"111":-0.015059758668643517,"112":-0.11156289060292508,"113":0.06486675230979827,"114":-0.06307437143227526,"115":-0.13672675977598253,"116":-0.03209736208864407,"117":-0.0053882671485092765,"118":-0.2175035168420962,"119":-0.1093836690229004,"120":0.02829816313328155,"121":-0.005772931311161766,"122":-0.05096206591739109,"123":0.138253041128395,"124":-0.047990765453388734,"125":0.03818253340556496,"126":-0.10661430907023055,"127":-0.09039273082767672,"128":0.1039672650034835,"129":0.11526396915332046,"130":-0.024781798378820843,"131":0.13766729473210282,"132":-0.0031312402355267175,"133":0.07694131501276553,"134":-0.20508794978266354,"135":-0.02339565305999001,"136":-0.05539959338786346,"137":-0.16877997455450278,"138":-0.04437873570789657,"139":0.11931817406240282,"140":-0.17469855054333652,"141":-0.03833743659265428,"142":-0.20345772912911955,"143":-0.12275022477469891,"144":-0.09677924827641687,"145":-0.022757665896787425,"146":-0.12867703087347843,"147":-0.013728009672621914,"148":-0.23874349801234068,"149":-0.028788190726260782,"150":0.0008807162770324113,"151":-0.01929027527240378,"152":-0.2116906987174266,"153":0.05528147431306108,"154":0.0643875804096541,"155":-0.10210182358345321,"156":-0.1411769803519694,"157":-0.06896296695164593,"158":-0.04206477661245881,"159":-0.03794064681611952,"160":0.0477009573686061,"161":-0.20963253255922404,"162":-0.09143815500291255,"163":0.011966508222784902,"164":0.030443277937380588,"165":-0.09659921111701383,"166":-0.05782479134744452,"167":0.03858277018701374,"168":0.06992520249627453,"169":0.1224132078920683,"170":-0.04758322933186758,"171":-0.07356653531902928,"172":-0.17001165068678326,"173":-0.12124325854608747,"174":-0.050415810432845716,"175":0.10359383667624857,"176":0.05180614971750844,"177":0.12648404437698244,"178":-0.03809574079343562,"179":-0.03210170842953884,"180":0.011517631758609358,"181":0.07327312722177598,"182":-0.03285854689832355,"183":0.05125697018237619,"184":-0.021923751009872837,"185":0.08016454341167976,"186":0.07840988287571174,"187":0.09935660821422786,"188":0.10801339653619592,"189":0.1710480306000632,"190":-0.11389467891609031,"191":-0.03221680538749304,"192":-0.1702640636059875,"193":0.06939771235800792,"194":0.046634495934265684,"195":0.056593460902105305,"196":0.002604172883840259,"197":0.06445329462299045,"198":-0.10898598544124989,"199":-0.09923335108422296}},{"sx":5,"sy":5,"depth":8,"w":{"0":0.044365841870731865,"1":0.021360040127465212,"2":-0.054754388493932826,"3":-0.027311797013328216,"4":0.08912728867440275,"5":0.02898238190903947,"6":0.04963571545554256,"7":-0.08832516105834291,"8":0.017481361142841784,"9":-0.04887711683049176,"10":-0.0857545979277509,"11":-0.11069240465045166,"12":-0.048118900023538774,"13":0.1536218626686013,"14":-0.03291935121475323,"15":-0.09291484580519341,"16":-0.12901867878173548,"17":-0.0050296679925017265,"18":-0.07473137097630436,"19":-0.13369628691257415,"20":-0.12143044765561987,"21":0.1137116995511465,"22":0.1262868021059665,"23":-0.11968917392542008,"24":-0.08044448941395084,"25":-0.12949417326390752,"26":0.0010624776233390516,"27":-0.2071540151721014,"28":-0.0997266322194117,"29":0.04418733118676507,"30":0.11783350114740465,"31":0.06273483749733091,"32":-0.20741322453581262,"33":-0.03685576657088443,"34":0.1768081062045708,"35":-0.031152980844013134,"36":0.0458626939479096,"37":-0.008026860526253269,"38":0.11615870098117408,"39":0.12097873486616019,"40":0.05714256822894005,"41":-0.0030498791351831742,"42":-0.031036615324044215,"43":0.006573390547679391,"44":0.10716052277674351,"45":-0.19710283425040565,"46":0.10581688762121377,"47":0.047196095258513274,"48":-0.11743973452021601,"49":-0.11731097335621093,"50":-0.05028371059755852,"51":-0.1390352394708561,"52":0.1359515973833103,"53":0.09059616217333709,"54":-0.007983023554651691,"55":-0.007722920752467284,"56":-0.2790220697163099,"57":-0.03240796069271662,"58":0.09115329647405658,"59":-0.10889931125956145,"60":0.20225945898841027,"61":0.06615831003998673,"62":0.09441727278529125,"63":0.1286449194673539,"64":-0.21404359308664028,"65":0.10923579438560536,"66":0.160454487201045,"67":0.045205395740987635,"68":0.007223055812146887,"69":-0.04795994263451481,"70":-0.07586177440231005,"71":0.003899954714438553,"72":-0.08603482812817383,"73":0.06424017033073766,"74":-0.04579151688314662,"75":0.1280292304128554,"76":-0.1081595348467456,"77":0.10940056854756945,"78":-0.08630548879577027,"79":0.03186945485056429,"80":-0.22912351214070711,"81":0.0570094277210418,"82":0.16419643819151347,"83":0.06857679742479449,"84":0.025839370771451268,"85":-0.0915500215857559,"86":0.01701366826907351,"87":0.08950459117772358,"88":-0.39616704493135513,"89":-0.03267535383122778,"90":0.07075426796442928,"91":0.02117247452830127,"92":0.07533760764685381,"93":0.1957124698453009,"94":0.09271260496242946,"95":0.174394876075728,"96":-0.12335857962169651,"97":0.13013982906317867,"98":-0.03151953581835163,"99":-0.0439187392472118,"100":0.16992673428644384,"101":0.015974705584640658,"102":0.12141845708808072,"103":-0.02893300460123112,"104":-0.017522225411915414,"105":0.0401086090533472,"106":-0.1002314944983444,"107":0.1440720759098179,"108":0.07674145360087598,"109":0.03586600075538254,"110":-0.10381114128589483,"111":-0.07753761371184853,"112":-0.08588616021319159,"113":-0.0980731462182548,"114":0.05242457526900036,"115":-0.0028261835178899986,"116":-0.24543883451671103,"117":-0.12499170460864854,"118":-0.09539717861867314,"119":-0.03534725395026851,"120":-0.24055517453705394,"121":0.022133625160495864,"122":-0.024553700099731617,"123":0.0409240445479423,"124":-0.05078904131151883,"125":-0.022437312320726984,"126":0.023720008954986705,"127":-0.18717934539617576,"128":-0.2160115761995432,"129":0.16711760731870307,"130":-0.1385893455723516,"131":0.02082885185817379,"132":0.09630500288116402,"133":0.09061510946766624,"134":0.028381443510831664,"135":-0.1627108312547055,"136":-0.20956793712352711,"137":0.05466715226069216,"138":-0.014675044332184755,"139":0.020763479676344947,"140":0.08529987153432499,"141":0.07075725550020648,"142":-0.08330116819500002,"143":-0.1521633141414321,"144":-0.23354502608433048,"145":-0.07801657646334134,"146":-0.08594549193066874,"147":-0.15173443420053193,"148":0.041508848383929604,"149":-0.025404413622231503,"150":-0.10188726862437802,"151":-0.11906566701624773,"152":-0.1383070486251881,"153":0.0374036845676225,"154":0.13741640522634269,"155":0.009589454753373158,"156":-0.025013463806330457,"157":0.06170793386746483,"158":0.06703952024099004,"159":-0.21076240143867134,"160":-0.22897049752738266,"161":0.020641924530313903,"162":-0.15779099373990496,"163":-0.094135357444549,"164":-0.008068501043037284,"165":-0.06937657145871118,"166":-0.03154192844917421,"167":-0.16685087963071304,"168":-0.26272039103265254,"169":0.07321966768134769,"170":-0.07147983681118936,"171":-0.04007655571171379,"172":0.16124900670077147,"173":0.12584338462719985,"174":-0.05681915972738068,"175":-0.05213776221947878,"176":-0.22461994839545393,"177":0.06478450140928513,"178":-0.06365581140218984,"179":0.019587896816570985,"180":0.026858392426418225,"181":0.32910871716112267,"182":-0.028732168536007435,"183":-0.18474362143282805,"184":-0.04007059977863485,"185":0.06933349067219237,"186":0.10821607405134995,"187":-0.01922253998583363,"188":-0.12158920808404984,"189":-0.017101381274218518,"190":0.007396795956448168,"191":0.004238794063602145,"192":-0.07589659540387549,"193":0.06116309895051554,"194":0.07966346468319825,"195":0.15710857374438383,"196":-0.1318411975566458,"197":0.025742151451471004,"198":-0.03474336623799089,"199":-0.01642425193209157}},{"sx":5,"sy":5,"depth":8,"w":{"0":-0.005986820406282118,"1":-0.13050793884563447,"2":-0.01670914721409301,"3":-0.15901595109250036,"4":0.007447773470885311,"5":-0.11596744530977167,"6":-0.10686742946647841,"7":-0.07285863451215907,"8":-0.19590196950683397,"9":0.10515983919185516,"10":0.03938731668104778,"11":0.0783225189465246,"12":-0.07662210069885729,"13":0.039749700911157954,"14":0.0179605847073578,"15":-0.0019960515807933388,"16":-0.14722931413058252,"17":-0.13984746239751597,"18":-0.030280869145411348,"19":-0.12138839812467256,"20":-0.012349083267017912,"21":-0.11178247076300325,"22":-0.11674824341207395,"23":0.0533510093283129,"24":-0.03654295684140352,"25":-0.11101280072922352,"26":-0.007262038539303999,"27":0.013089203589912191,"28":0.044870418615908944,"29":-0.09130607118664186,"30":0.09686282050761012,"31":-0.14787103886803837,"32":-0.01892920162330962,"33":-0.022182430697087526,"34":-0.10414926221239905,"35":-0.014015545674335104,"36":-0.05313116967601868,"37":-0.0997835867180068,"38":-0.001366503910771507,"39":0.012781143566133631,"40":-0.1261204045622074,"41":-0.05613696293001514,"42":-0.22425705372242563,"43":-0.05415669078748896,"44":0.0009596189389250304,"45":-0.05569063925058831,"46":-0.003107023881181557,"47":-0.033098624100508775,"48":-0.06620308910582481,"49":-0.03386145468536668,"50":-0.05314878657242586,"51":0.03285171631835108,"52":-0.15515656711058665,"53":0.04993343986058781,"54":-0.13238776654938542,"55":-0.0014176486765351964,"56":-0.04210035472649733,"57":-0.04312994615469304,"58":-0.04561185870069557,"59":0.05421792996718801,"60":-0.026488744002922577,"61":-0.12919125737554857,"62":-0.0015095904372340449,"63":-0.07351671744767026,"64":-0.19667051314810785,"65":-0.12492192886183069,"66":0.0074864405143296505,"67":-0.09409856088611153,"68":-0.031112010246744697,"69":0.03081204873200471,"70":-0.10192016654022992,"71":-0.11544387382952433,"72":-0.027787835390567717,"73":-0.1081657417729898,"74":0.040288619752727156,"75":-0.0014043433685264819,"76":0.0832189135510055,"77":0.02269689739034461,"78":-0.09708563740931153,"79":0.013052414617352315,"80":-0.00108714466438319,"81":0.10259641489643166,"82":-0.02109578076247838,"83":-0.07439607728304397,"84":0.006520996556839269,"85":0.12196710466322543,"86":0.0014130441125851842,"87":0.05060397187485782,"88":-0.15789557588180128,"89":0.015022019401172076,"90":-0.09339355957317015,"91":0.04814255448396839,"92":-0.0462581558737119,"93":0.08771851920841493,"94":-0.037490136154868854,"95":-0.040484709530765495,"96":-0.05150973285066541,"97":0.009090357786231051,"98":-0.13522243950308954,"99":-0.022396689787432592,"100":0.057504486916506704,"101":0.027439913600961888,"102":0.02573555207359906,"103":0.04286495132978723,"104":-0.07533595970295139,"105":0.13416425957809955,"106":-0.050309423688828056,"107":-0.06514484928952181,"108":-0.11323250281585023,"109":-0.04656419598358421,"110":-0.0073683256415504736,"111":-0.20051060098283816,"112":0.06755730743451942,"113":0.01928796507383139,"114":-0.015731533911614717,"115":-0.1351108245805841,"116":-0.01813111262193904,"117":0.037793215275006654,"118":0.10506770136490823,"119":0.02533533519264149,"120":-0.08112358971885097,"121":0.049936215162766195,"122":0.07861192897874972,"123":-0.05723410376620847,"124":-0.0839159756385502,"125":-0.009214534588531777,"126":-0.13460700089982056,"127":0.03143582398444574,"128":0.0033617559354161912,"129":-0.05079773171996341,"130":0.011862695714461434,"131":-0.03459108530366202,"132":0.007705973393687032,"133":0.037921244235075154,"134":-0.12518322015764502,"135":-0.08751102478405928,"136":-0.03387191078052347,"137":-0.07941645236247465,"138":0.005339246803592684,"139":-0.011220401385657375,"140":-0.01455453482316847,"141":-0.020711266833061886,"142":-0.012087518385725355,"143":0.017665818566094997,"144":-0.08034551374088716,"145":0.041603800879293086,"146":0.012201850521204937,"147":-0.1125457438422974,"148":0.10000280102538699,"149":-0.0809492732477939,"150":0.05001984235336884,"151":-0.019663535652802697,"152":-0.11165317091777133,"153":0.05734366005166457,"154":-0.03836230670045364,"155":0.10000547755107214,"156":0.03324266825696886,"157":-0.04657064220688915,"158":-0.03156854451594424,"159":-0.1207777855846362,"160":0.05433254933796392,"161":0.0826550757438491,"162":-0.05985004270684406,"163":-0.002677038350843303,"164":-0.05359369180044977,"165":-0.04395749490117973,"166":0.08784692796892098,"167":0.004311775226714265,"168":-0.24086971115587044,"169":-0.07948714986675925,"170":0.13269722186187627,"171":0.005808445361714052,"172":0.09678048840963643,"173":0.01160101044374135,"174":0.007046430396555198,"175":-0.016749159761533086,"176":0.035328181654457516,"177":0.12707469970566249,"178":0.019667140148026854,"179":-0.18702471837618564,"180":-0.12635497991035402,"181":0.07201710879223173,"182":0.10250140551564224,"183":0.0012919110432537632,"184":-0.04465861412370082,"185":0.053148802617224655,"186":-0.1141681416823236,"187":-0.010255431897040845,"188":-0.07109715411356222,"189":-0.10153125375783184,"190":0.008330220445778556,"191":0.07492822853854987,"192":-0.12794760552933324,"193":-0.05025251336131371,"194":-0.11562806283793232,"195":-0.009348883623333472,"196":-0.1416022456778473,"197":-0.1401267683576279,"198":-0.14798046878191046,"199":-0.06323884701804472}},{"sx":5,"sy":5,"depth":8,"w":{"0":0.07925825646843007,"1":-0.02013835712486528,"2":-0.11786562524324948,"3":0.02268959426896842,"4":-0.11335115904534834,"5":0.0330983799935397,"6":-0.07385737136391222,"7":0.13272766608961434,"8":0.0005591321904578517,"9":-0.11852784125147109,"10":0.024624513599259303,"11":-0.0938614977120934,"12":-0.1026216866521746,"13":-0.1803675148920559,"14":-0.08350882943080448,"15":0.036156545118667865,"16":-0.07631589341954038,"17":-0.03227312455895897,"18":-0.19272509057416712,"19":-0.1457936891225815,"20":0.06159446456045957,"21":-0.14996686788468816,"22":0.031998584831784964,"23":0.06474029939035847,"24":-0.0015397929041921958,"25":-0.17014676791211947,"26":-0.15837043291194297,"27":-0.0885858282052906,"28":-0.0905101369439429,"29":-0.0948011025073936,"30":-0.018653173145498306,"31":0.03089361616454104,"32":-0.050324256228712366,"33":-0.09683500456513386,"34":-0.0035469259549756487,"35":-0.06389865610273557,"36":0.05649895643136655,"37":-0.3068280242276056,"38":0.05329099746975976,"39":-0.07635433626528203,"40":-0.017865581544633916,"41":-0.03348355776079267,"42":-0.16935701840621425,"43":-0.13767504493858526,"44":-0.04252974039186689,"45":-0.18017532830688038,"46":0.1542795049876095,"47":-0.05812113718757635,"48":-0.0013037109540046938,"49":-0.15468911057680454,"50":-0.13099663428653907,"51":-0.02552162623883922,"52":0.04086625229123056,"53":-0.12301696612872871,"54":-0.08937424446186817,"55":0.022512835971073095,"56":-0.046353948554833525,"57":-0.19752658105116558,"58":0.040117613201796944,"59":-0.12674314426119218,"60":-0.07373082992323403,"61":-0.03814849076989625,"62":-0.019214315986233046,"63":0.09460567863403936,"64":-0.08287433297548276,"65":-0.07158595815789237,"66":-0.003080420980684671,"67":0.028501571259126387,"68":-0.04347580532818976,"69":0.011403992377851698,"70":-0.05249813800446596,"71":-0.01799316890396955,"72":-0.08760074425875443,"73":-0.16611908857044452,"74":-0.13484339357021,"75":-0.06432498717781979,"76":-0.08884301205837228,"77":0.023598427794350983,"78":0.00810515275215853,"79":0.10714539822166427,"80":0.03151604894300667,"81":-0.16422636477244668,"82":-0.18346738217538178,"83":-0.20834740992848266,"84":0.03530536271310296,"85":-0.23302335055332116,"86":0.006321615784613108,"87":-0.04330764209561766,"88":-0.09788114674054858,"89":0.007315917126961737,"90":-0.03947479120241134,"91":-0.061723941430592434,"92":0.0066821816323770315,"93":-0.0859319283934693,"94":-0.11235087007457016,"95":-0.08090842885481385,"96":0.046494584501069705,"97":0.09178909136190742,"98":0.03565687966055454,"99":0.03744770813406077,"100":-0.05737887381263902,"101":0.07603977988316274,"102":-0.03033457890788404,"103":0.23180435759948284,"104":-0.16399043471544736,"105":0.04290270622992288,"106":-0.06296358541658133,"107":0.04094569874729108,"108":-0.07049951753780984,"109":0.03599218790586162,"110":-0.07217406270654966,"111":0.19701263394677335,"112":-0.08324101002777329,"113":0.046892510796537876,"114":0.12937034768213598,"115":0.14201691544932163,"116":-0.21599681708901142,"117":0.08634574629661168,"118":0.011140620045195407,"119":0.12685367821550458,"120":0.034068860369929475,"121":0.02110013056103114,"122":-0.13900240411551876,"123":0.04054488533092842,"124":0.17716467866663468,"125":0.07330230533576157,"126":-0.057782018443755925,"127":0.1826386766005156,"128":-0.06557648029038099,"129":0.13281833176268656,"130":0.0020167388399325165,"131":-0.003955589780501405,"132":0.05739189601522938,"133":0.08443159944024878,"134":0.1145118636640453,"135":0.137162888681178,"136":0.029503147886331325,"137":0.001713019145224602,"138":0.039938006966630045,"139":0.24951578171123825,"140":-0.00020083941990908533,"141":0.07771825753735005,"142":-0.10283761644081801,"143":-0.12250598985112433,"144":0.0021666096710719063,"145":-0.019049013646899014,"146":0.15392383134409499,"147":0.1442425559522494,"148":-0.0282129914866366,"149":0.019697060933713623,"150":-0.014580076174541143,"151":-0.10690386561897891,"152":0.02795725881850138,"153":-0.06642076459857707,"154":0.16866355367892574,"155":-0.02822488276499923,"156":0.012628457327257554,"157":0.04943227380612796,"158":-0.022164475523241533,"159":-0.10084848246373102,"160":-0.33750349537688773,"161":0.09702273241759236,"162":0.07193022348783064,"163":-0.014106562478395923,"164":0.19481612028421025,"165":0.13182506864588497,"166":0.04189454352032641,"167":0.03283721265711212,"168":0.014164232451786999,"169":-0.0059732280196232255,"170":-0.05054939901299481,"171":0.14923602644723027,"172":0.06585291744819996,"173":0.010294042145049805,"174":-0.1839080500011498,"175":-0.06917821704971241,"176":0.0440509537597685,"177":-0.04957003409867391,"178":-0.183147806485504,"179":0.17701914406466435,"180":-0.10124708422569145,"181":-0.08844054510672529,"182":-0.050154891746938934,"183":-0.09243502200607819,"184":-0.03551716544785171,"185":-0.09634543902534122,"186":-0.06563948518758393,"187":0.11307512777966797,"188":-0.12707499471722689,"189":0.06720873479174352,"190":-0.08228322323909522,"191":-0.04369553786485781,"192":-0.32401738316666234,"193":0.04687097300024219,"194":0.16357705185090393,"195":-0.004498986656449371,"196":-0.21548411034070072,"197":0.09221841051676027,"198":0.018514896422818956,"199":-0.012521135877419409}},{"sx":5,"sy":5,"depth":8,"w":{"0":0.08797529204413623,"1":0.006304158467968929,"2":-0.0557781385491223,"3":0.08622224354657697,"4":-0.11789507080596054,"5":0.06462222454710152,"6":-0.06597069902892752,"7":-0.08495148570564275,"8":-0.06202350980983187,"9":-0.019166905320938534,"10":-0.06905675346380073,"11":0.10151843619468506,"12":0.017188691967823768,"13":-0.026690365936308136,"14":0.04427332426502437,"15":0.07193304373191944,"16":-0.2313148073574453,"17":0.20119208491942164,"18":0.16350497700365996,"19":0.09407858697862177,"20":0.05025801817436523,"21":0.08506521019472431,"22":0.09918203392226838,"23":0.006302263572856929,"24":-0.018029092237854788,"25":0.029835773961099765,"26":0.15809543662393638,"27":0.03857604969214722,"28":0.04249494073501063,"29":0.01675069776024576,"30":-0.12560883392682412,"31":-0.19783695238914425,"32":0.040573279023117644,"33":0.06577446059841709,"34":-0.09690028417320792,"35":-0.14170075028444015,"36":-0.13043096702238774,"37":-0.09890760640970643,"38":-0.10251080158754038,"39":0.043076473325674866,"40":0.02584163085002116,"41":-0.012433762094259981,"42":-0.03112058155832015,"43":0.027565923179271225,"44":0.028554223415930044,"45":-0.070639288623453,"46":0.15051840131929048,"47":-0.13266552086371441,"48":-0.32086144560731145,"49":-0.0069111352648177785,"50":0.026341236942476004,"51":0.10090932594878,"52":0.0810702912039285,"53":0.08027113150536083,"54":0.010789926878604035,"55":-0.15195311766127279,"56":-0.20323476194763482,"57":0.13773116841282654,"58":0.07882040354989632,"59":0.006935597831349812,"60":-0.01573758543623744,"61":0.02930420047244322,"62":-0.00950805098815555,"63":-0.10061320080876975,"64":0.054636626215092875,"65":0.007706322500913454,"66":-0.05743549176025871,"67":0.042930932301479645,"68":0.00456954553886987,"69":-0.13712178557846572,"70":-0.06880057220522699,"71":-0.12064206371385999,"72":0.031181199918524874,"73":-0.018622535652176444,"74":-0.029443157955997494,"75":-0.07322371117300673,"76":0.11524126911345105,"77":-0.010707321194947569,"78":0.03603829592871586,"79":0.013935262774125379,"80":-0.18207633055997918,"81":0.10100754132116313,"82":0.003340778170017578,"83":0.01576969928330151,"84":-0.01028408362497092,"85":-0.06253130782802205,"86":-0.04387955240298795,"87":-0.04141155714065509,"88":-0.31829987675602883,"89":0.21181661172667376,"90":0.11890529847585443,"91":0.09429098714785401,"92":0.11143619516549107,"93":-0.020184162510374443,"94":-0.16914019632102217,"95":-0.12706809573403788,"96":-0.11577483429921438,"97":0.039221330200927905,"98":0.06785043984807837,"99":-0.14217463215935236,"100":-0.07327061591664373,"101":-0.00814318382046433,"102":-0.023345949954533315,"103":-0.16643433015689374,"104":-0.04097776254420703,"105":-0.1796854386588399,"106":-0.09414912546227998,"107":-0.15025753970901143,"108":-0.11220694375286049,"109":0.029594508545801163,"110":0.13133017995928895,"111":0.10883061209940363,"112":-0.011643301006676576,"113":0.05697175627579892,"114":0.12142926628366416,"115":0.20533163504228516,"116":0.08206508328418621,"117":-0.051244630713391734,"118":0.11923672170835879,"119":0.04874330146345306,"120":-0.1882973378627889,"121":0.15197828837071314,"122":0.28216991744303543,"123":0.11874372803630077,"124":-0.02054148640850765,"125":-0.06863680901394732,"126":-0.13999290186832974,"127":-0.13049310363790478,"128":-0.004121059322122105,"129":0.03162706025605727,"130":-0.08405411880408202,"131":0.08289247658687994,"132":0.06439741597728571,"133":-0.031105349746057352,"134":0.025224025730050434,"135":-0.19705828215832272,"136":0.05872487670566928,"137":-0.023589694474743496,"138":-0.07052437525893197,"139":-0.05257932490074644,"140":0.024760071814331316,"141":0.04209051845179965,"142":0.06248082660673521,"143":-0.040171741955917654,"144":-0.17187640509112107,"145":0.05905777408304798,"146":0.05906760315669723,"147":0.07281328582881783,"148":-0.05901259169883525,"149":0.010114469283302611,"150":0.025514448013185836,"151":0.014147886953533657,"152":-0.09957603547874092,"153":0.1669835545576421,"154":0.16419214030236626,"155":-0.0421530268789982,"156":-0.08618364328775543,"157":0.010267597587327343,"158":-0.030269878078733513,"159":-0.016508768606882947,"160":0.05511166279316397,"161":0.013949545867864208,"162":-0.06428884250864553,"163":-0.14739457045937154,"164":-0.06739112245426357,"165":-0.07294533775293098,"166":0.05967958358793299,"167":-0.1114737434633656,"168":0.027259889820618454,"169":-0.05719431441550604,"170":-0.06696687513696281,"171":-0.11298043228220567,"172":0.13458965762036765,"173":0.040549970278803825,"174":0.08860741696840523,"175":-0.07128039798434326,"176":-0.20282237408197862,"177":0.07812260988222029,"178":-0.038833211040363164,"179":0.031183412333048662,"180":-0.05298451218852626,"181":0.06261537960893145,"182":0.10100462300627562,"183":0.022996868118905302,"184":-0.15767267237846389,"185":0.010977525790079365,"186":0.27997234918563085,"187":0.02313185748334045,"188":-0.017202113397826412,"189":-0.045110380979872966,"190":-0.10694750330182615,"191":-0.021833562059982155,"192":-0.16755594297448267,"193":0.03994573329865518,"194":0.09926767497803435,"195":-0.09462818815253471,"196":-0.010762534831027074,"197":-0.010915169222586587,"198":-0.1757420853241152,"199":-0.08331963989366833}},{"sx":5,"sy":5,"depth":8,"w":{"0":-0.08314467541385019,"1":-0.06769905631067559,"2":-0.1161983912135107,"3":0.09102367237370994,"4":0.06912389706358146,"5":-0.1859063682892022,"6":-0.09511450093124398,"7":-0.11203090071740936,"8":-0.2894356464098021,"9":0.17270063101423172,"10":-0.08304339206202956,"11":0.08947173709752512,"12":0.13289249764593217,"13":0.15604671086085156,"14":-0.07205640228174319,"15":-0.04145375612896441,"16":-0.12283672518102765,"17":0.05517171284286283,"18":-0.0241960815900077,"19":-0.04435760429234263,"20":0.16454890443695952,"21":0.05060331571476885,"22":-0.09415620012696126,"23":-0.05865794026114629,"24":0.07820867532319761,"25":0.005440128488729224,"26":-0.12044889483019994,"27":-0.01492001848122974,"28":-0.01480947288158866,"29":0.0073019033216764635,"30":-0.12193751615091171,"31":-0.13740538072395844,"32":0.04108738091597156,"33":-0.015108626818592947,"34":-0.22237575360975326,"35":0.032807755534565636,"36":-0.1671263250887158,"37":-0.11021291636204877,"38":-0.0004023676934610409,"39":-0.05272489663396746,"40":-0.19716219415661146,"41":-0.017176078852321027,"42":-0.1703694372142394,"43":0.10947754912718392,"44":-0.05530788570956509,"45":-0.1755696119457678,"46":0.02403403576913072,"47":-0.0021391332210407297,"48":-0.27519470967745996,"49":0.07265846069695697,"50":0.015913311439319133,"51":0.01624250393629184,"52":0.14336257172565126,"53":0.1590488310992224,"54":-0.10491054923236519,"55":0.09010794131128319,"56":-0.12353232250131178,"57":0.14659472973390267,"58":0.02776929200871295,"59":0.01281996407355899,"60":0.07692641163032701,"61":0.19446024023489505,"62":0.05451845438624555,"63":-0.19679144707091864,"64":0.061428326394550904,"65":-0.0499801278441743,"66":0.01623102367421204,"67":-0.09737410118135456,"68":-0.17113875758753067,"69":0.0759560358842906,"70":-0.09877178875864938,"71":-0.0214376028533132,"72":0.07005290612686693,"73":-0.16547711540245447,"74":-0.08991263463307154,"75":-0.08255338047485497,"76":0.010866664728616096,"77":-0.16198157664000937,"78":-0.0516436358465552,"79":-0.018430261732511197,"80":-0.2830051158572261,"81":0.025745165264963024,"82":0.0052955598045190625,"83":0.038464923950683454,"84":0.21887913226477068,"85":-0.21465209447158418,"86":0.18466412002797974,"87":0.09308134511597113,"88":-0.18598799362317064,"89":0.014596053175685573,"90":0.0731232998402157,"91":0.1334585795724417,"92":0.16182646557244315,"93":0.1309539985494375,"94":-0.16478466706442163,"95":-0.20590238087169324,"96":0.0887762875798984,"97":-0.03962033689744974,"98":0.032078581628418215,"99":-0.13517841674852846,"100":0.025970140051072895,"101":0.20044494462499793,"102":0.005630549217983306,"103":-0.14213408156817148,"104":0.09847190792692885,"105":-0.16984424733459158,"106":-0.22326323881403112,"107":-0.2134677527261926,"108":-0.04135573505421027,"109":-0.15668810300906158,"110":-0.0009154434586081024,"111":-0.11573781901075543,"112":0.026451732184995292,"113":-0.13827283905853688,"114":-0.13997007280445112,"115":-0.16412577148914118,"116":0.05898085938438231,"117":-0.17281741480491605,"118":0.03848829000811063,"119":0.044941372821491195,"120":-0.16257802861451126,"121":0.014670813274758667,"122":0.01707082780435705,"123":0.1311924760892546,"124":0.15029277703425462,"125":0.0324960049122201,"126":0.1038315482888448,"127":-0.06478038014603534,"128":-0.21363843048379005,"129":0.21050646999213504,"130":0.10660604339769379,"131":0.04502317956558452,"132":0.1955296938027275,"133":0.11990055340135562,"134":-0.056951865101045336,"135":-0.163056182236166,"136":0.14949573251501244,"137":-0.009067073103448769,"138":-0.28403255255715953,"139":-0.21463436167470162,"140":0.041865710055655606,"141":0.1064632285410934,"142":-0.04036999641954056,"143":-0.2050716233641404,"144":-0.0028080458311475027,"145":-0.2814963571456379,"146":-0.11929230631610656,"147":-0.2385119522810927,"148":-0.1422295646685503,"149":-0.21310505397985455,"150":0.08865514965015288,"151":0.018513767964976533,"152":-0.005696316134630449,"153":-0.05557151022101614,"154":-0.18166887401390427,"155":-0.13415403259157313,"156":-0.06352069680819743,"157":-0.1387091691249147,"158":-0.017952940778744153,"159":0.04080349565660294,"160":-0.19175935189746168,"161":0.21815857703775365,"162":0.1228517510701929,"163":0.045988476270540604,"164":0.26589628592107895,"165":0.08549990202609932,"166":0.03529622190377825,"167":-0.08473238240443849,"168":-0.09696760275778656,"169":0.10966210216384725,"170":-0.09332044416602402,"171":-0.11924393810823708,"172":0.2832826281841732,"173":0.15294429338974014,"174":-0.04158087354684367,"175":-0.07820788976647433,"176":-0.012325968309108658,"177":-0.16554395731537946,"178":-0.38295260006503606,"179":-0.36292579440896766,"180":-0.1828060208400136,"181":0.048106095828527914,"182":-0.01505573911128189,"183":-0.00912117955262551,"184":-0.1171479804132855,"185":-0.11496468881707078,"186":-0.10323934681444524,"187":-0.10586631244115718,"188":-0.07843877382583592,"189":-0.20289505640058117,"190":0.15869279716686932,"191":0.038799504760053935,"192":-0.03952559819612546,"193":-0.07952370708285747,"194":-0.16009205227568035,"195":-0.026349789044544745,"196":0.11867001651532753,"197":-0.18083936622345514,"198":0.055145879934019225,"199":0.07047826382227944}},{"sx":5,"sy":5,"depth":8,"w":{"0":-0.22485899154057526,"1":0.04738668413567055,"2":0.0765018613929539,"3":0.000761247678242111,"4":0.13227539449578848,"5":-0.015981239209546912,"6":0.11863205739929879,"7":0.17092766481463903,"8":-0.23298400669114333,"9":0.09041117252797004,"10":0.09694603771299039,"11":0.08597819430118611,"12":0.1080581108469972,"13":-0.021970144893360088,"14":0.019082471477298496,"15":0.028426504659671392,"16":-0.14103639997794967,"17":0.06516622629655273,"18":-0.055631004575383135,"19":0.09978208731795693,"20":0.13239430289431178,"21":0.05567749853898381,"22":-0.18507218128949066,"23":-0.1906196598704367,"24":0.07212095193620177,"25":0.16151949690029355,"26":0.008690401786561162,"27":0.12471043017766092,"28":-0.05215448553689913,"29":0.039153883703635275,"30":-0.03786217383764615,"31":-0.15403021149059226,"32":0.05437768893035795,"33":-0.022856849142288513,"34":-0.2103180621347985,"35":-0.05967569087897889,"36":-0.3231077078760065,"37":-0.010912606767938817,"38":-0.025296422766046343,"39":-0.12283419011642945,"40":-0.053309095461196096,"41":0.08661374710340876,"42":0.15714284259573869,"43":0.11525285830405163,"44":0.06549978268873514,"45":-0.05721543079060532,"46":0.09519216636563747,"47":0.11387737092261012,"48":-0.02538768333852886,"49":0.056336950411996455,"50":0.033804044520120605,"51":0.14220847783508037,"52":0.1909536329030615,"53":-0.016834154152692883,"54":-0.045839923626942836,"55":-0.0072281214096215915,"56":0.00466103861145236,"57":0.12234635609620567,"58":-0.024482371624861193,"59":0.10951532555108363,"60":0.031463092749015646,"61":-0.12497054756995142,"62":0.02871422753474327,"63":0.005481250873045203,"64":0.10497874649598521,"65":0.019056536319860533,"66":-0.24643768310481018,"67":-0.0950888406553661,"68":-0.15392680675840822,"69":-0.09353424479229724,"70":-0.09321882371741337,"71":-0.03622121691584233,"72":-0.05303420951151168,"73":-0.1798053168933971,"74":-0.09613250958743796,"75":-0.23501896068230702,"76":-0.16963039677491404,"77":-0.11516118118287676,"78":0.11680438424408697,"79":0.005601810217317512,"80":0.17648400479771173,"81":0.14217997417448136,"82":0.004861163471187321,"83":0.13238684244893328,"84":-0.09565739636603215,"85":-0.02315402987658229,"86":-0.07085925584462141,"87":0.06423556535960895,"88":0.14420626969818087,"89":-0.0697452199875991,"90":-0.09474541387006652,"91":0.017176834799128793,"92":-0.09587641182777096,"93":0.128226162889581,"94":-0.0080186986317656,"95":-0.12899552178313795,"96":0.2424425774863222,"97":0.014816573566037735,"98":0.05618182062226802,"99":0.007752636018434792,"100":-0.08515103834389862,"101":-0.011401030849264826,"102":-0.0618610946723896,"103":-0.04963812442601128,"104":-0.02773979805824445,"105":-0.14073942219707958,"106":-0.21126771555735488,"107":-0.11875732070762746,"108":-0.15463839606518381,"109":-0.18468102327162447,"110":0.02040287342911796,"111":-0.002528641543320255,"112":-0.03512908993184405,"113":-0.2592327740576764,"114":-0.009249277826181488,"115":-0.17227010141179194,"116":-0.08556052950818835,"117":-0.1909193316488022,"118":0.08382139858902557,"119":-0.09084249178815695,"120":0.217730180911776,"121":0.010411694600686461,"122":-0.24505830894236053,"123":-0.20113544607038275,"124":-0.02841250580274491,"125":-0.10944662304734655,"126":0.02438628559191484,"127":-0.1149123665279351,"128":0.09682195270324004,"129":-0.2056648414647215,"130":0.08490635079684405,"131":-0.21802311082937129,"132":-0.09091322253852208,"133":-0.13124941060756,"134":-0.017045882583701974,"135":-0.10293183964009046,"136":0.07735074272328439,"137":-0.17678943419880627,"138":-0.15632997356589648,"139":-0.04548697324946345,"140":-0.22347040200992363,"141":-0.04804616760264579,"142":0.11385347796685866,"143":-0.06765004039869459,"144":0.009575595315262465,"145":-0.07001633606721946,"146":-0.04380510771355856,"147":-0.053196332163940256,"148":-0.09970255009935686,"149":-0.20233790235368482,"150":0.07172475013121078,"151":0.13325284017283423,"152":-0.1673160858550378,"153":-0.0005267025616366031,"154":0.07907953657838789,"155":0.03983792577574254,"156":0.18838005409223643,"157":0.015070366862782054,"158":-0.02185555797865018,"159":0.19497916072568924,"160":-0.07365893673462953,"161":-0.06676530190345456,"162":0.12998434776727413,"163":0.016623653060576293,"164":-0.004780682194006057,"165":0.041104510889387505,"166":-0.06153550616135919,"167":0.09370930367903176,"168":-0.09849163217278904,"169":-0.016017987172016288,"170":0.052997663022641056,"171":-0.2788184829903708,"172":0.010943956518343491,"173":-0.0484538123322981,"174":-0.08007092805526302,"175":0.1091533808543493,"176":-0.04087557165896939,"177":-0.06095786890797403,"178":0.03653467803499978,"179":-0.1950099089347793,"180":-0.07784600501897816,"181":-0.15059113845578667,"182":0.1311133843977659,"183":0.1907925963579192,"184":-0.14001167283415072,"185":0.06208928235964043,"186":0.12862879338648267,"187":-0.1369744160314143,"188":0.043958815879688515,"189":-0.023033798718532936,"190":0.029604511260870634,"191":0.14190411250448762,"192":-0.05646037764451394,"193":-0.06747210241166042,"194":0.050981930065345224,"195":0.07314271560923451,"196":0.16451308038923812,"197":-0.1367622815327777,"198":-0.06122700790911363,"199":-0.17003702303304838}},{"sx":5,"sy":5,"depth":8,"w":{"0":0.074671688391202,"1":-0.12396986612334567,"2":0.025456277802342605,"3":0.009883329063661208,"4":0.03558423462304127,"5":-0.09691977282215453,"6":0.04643475264340687,"7":-0.09995914668621851,"8":0.15993446462466449,"9":-0.09841238190123082,"10":-0.13317625493107166,"11":-0.0732833887667683,"12":-0.022699776917521505,"13":0.025269925144002586,"14":0.02024818810370335,"15":0.051453611341303045,"16":-0.01784462147284505,"17":0.007551763856794655,"18":-0.15137827058730427,"19":0.012157327915352591,"20":0.009956587169879969,"21":-0.12970073387102216,"22":-0.07984084434351353,"23":-0.08571228244776964,"24":0.27308929614606153,"25":0.05612900061987892,"26":-0.19527679952400173,"27":-0.1523843500445221,"28":-0.053709902020292334,"29":-0.011371095673008053,"30":0.2387038826386924,"31":0.14552856026708524,"32":0.03708264311938532,"33":-0.21119001812271063,"34":-0.019124720616488417,"35":-0.0709984761211021,"36":0.023983188090118943,"37":-0.13543811705317343,"38":0.1426700744039629,"39":0.39093912391952695,"40":0.027593823886123817,"41":-0.06510765199578099,"42":-0.17428398770127393,"43":-0.20637190274974243,"44":-0.010052798996960528,"45":0.0020950261370260223,"46":-0.01974258023295547,"47":-0.026059758632040495,"48":0.0595910918474317,"49":-0.20797542480758463,"50":-0.12057921880281433,"51":-0.06891673740246854,"52":-0.105740383801935,"53":-0.09796931775157015,"54":-0.0324055054268087,"55":-0.10002769633749228,"56":0.08160064632051028,"57":-0.18896060619495672,"58":-0.08303604771644954,"59":-0.01858119384385115,"60":-0.009558487763779275,"61":-0.16521015312544096,"62":-0.04193958552932039,"63":-0.018915554256897033,"64":-0.018080024284253517,"65":-0.08662604401024562,"66":-0.11368136386941954,"67":-0.06518761389509214,"68":-0.13169852420837466,"69":-0.027190115437188703,"70":0.11576897552130999,"71":0.10430171727838902,"72":0.07737074011292677,"73":-0.06283254561277224,"74":-0.02958046851843258,"75":0.14124181976727718,"76":0.1263660417972101,"77":-0.050629267612368724,"78":0.22699220258407782,"79":0.16365286718872615,"80":0.07289087057145986,"81":-0.25069419544604893,"82":0.12492814784699698,"83":-0.1906834448490176,"84":0.023466070830085617,"85":-0.15983703981040087,"86":0.09988060263970125,"87":0.21781879691931433,"88":-0.06568634324167748,"89":-0.05975678194981286,"90":-0.08848355106974062,"91":-0.11533585473541884,"92":0.028601764293792412,"93":-0.10106574459532096,"94":0.18130029572515002,"95":0.13956729243478572,"96":-0.058913687934697756,"97":-0.08987967207720686,"98":0.05407078676393543,"99":-0.20235443290039942,"100":-0.15080121408843022,"101":-0.033130719413492715,"102":0.16933774186854939,"103":0.12723115570448262,"104":-0.14311559999675838,"105":-0.11553569315263361,"106":-0.08828148453566613,"107":-0.0180663996087193,"108":-0.05348619274515214,"109":0.008682908451374002,"110":-0.043866959630412074,"111":0.04633379804124019,"112":0.2173342720506396,"113":0.01039956433175427,"114":-0.057016717006288666,"115":0.08783744350560412,"116":0.08319562493928248,"117":-0.06313309464904644,"118":0.004049776162643977,"119":-0.18608338507068728,"120":-0.13361898953281887,"121":0.06646545158428319,"122":0.10358068403790316,"123":0.0049835549635164735,"124":-0.011659042376635015,"125":-0.0032128776383436655,"126":0.05323809905708336,"127":0.11080099636334202,"128":-0.14198005757679386,"129":0.004791410946622944,"130":0.010444366382660848,"131":0.012416748434955162,"132":0.026167582423774878,"133":-0.03269232729799883,"134":-0.03233704882660912,"135":-0.07413281612469513,"136":-0.06971314933247341,"137":0.040875243261894845,"138":0.0075132900732518765,"139":0.05497576303629527,"140":-0.08048354268661607,"141":0.08598916947043447,"142":0.054488154852235855,"143":-0.0002357425306574847,"144":-0.10998925782012532,"145":-0.0775213476999189,"146":0.10321180007312868,"147":0.04649579121175517,"148":-0.06933846540463617,"149":-0.015461310267016524,"150":0.0009487702381764883,"151":0.02723586192648831,"152":-0.14757863319247744,"153":-0.16021212681001368,"154":0.08321175353169105,"155":-0.37430561350073743,"156":-0.09365096801813771,"157":-0.16716240417853903,"158":-0.009101837813445991,"159":0.09873198527931494,"160":0.09885782582649069,"161":-0.017604456444336038,"162":0.13567522876057578,"163":0.13051172362587896,"164":-0.12325631812762446,"165":0.08040242768848113,"166":0.04519543624676879,"167":-0.15780883028393555,"168":-0.03870625669855452,"169":0.14476158842538403,"170":0.006748550560777498,"171":0.021457136280645547,"172":-0.12255035330546739,"173":0.01615887383090046,"174":-0.11629401008296242,"175":-0.044061892818997854,"176":-0.08032039404137777,"177":0.03564709042096418,"178":0.013401151196384038,"179":0.08153177914687058,"180":0.05525401234194022,"181":-0.011556514332198507,"182":0.12479411076434169,"183":0.054524717500588016,"184":-0.2328517340950848,"185":0.12097991291681087,"186":0.17779410693034725,"187":-0.04364138852465702,"188":-0.19208254760236287,"189":0.14184186963293338,"190":0.1073078637945945,"191":0.20549025386712996,"192":-0.13931710156808724,"193":0.06387525116469948,"194":0.15601961716686474,"195":0.09258110199277479,"196":0.02566297866622051,"197":-0.0638166514183675,"198":0.1383348472564644,"199":-0.0016932362211381545}},{"sx":5,"sy":5,"depth":8,"w":{"0":-0.13234935981614618,"1":0.030505870808068686,"2":0.14842623361981686,"3":0.051905870223109545,"4":-0.14251636144794075,"5":0.02249488512936294,"6":0.053391363627085575,"7":0.08848419139357037,"8":-0.06372590005443586,"9":-0.03370608571182274,"10":0.30440547314098926,"11":-0.0959697144124682,"12":-0.11551580941204563,"13":-0.055571441575366316,"14":0.1577795111698774,"15":0.04989166184594419,"16":-0.08198143039123205,"17":-0.04559313759944519,"18":0.16145124091617916,"19":-0.11528291920376023,"20":-0.06058031038858256,"21":0.04021673731719471,"22":-0.005375694896316757,"23":0.14646492271475792,"24":0.056510914445541474,"25":-0.09523925192506999,"26":0.09777933594165836,"27":-0.13835247877079915,"28":-0.10741181049630934,"29":-0.09868774114893368,"30":-0.08200878105393636,"31":-0.06564582757520553,"32":0.05693448526894355,"33":-0.08093344405863427,"34":0.022915017533968754,"35":-0.18840056411987288,"36":0.023502898449327837,"37":0.043017976965667344,"38":-0.21421604804187994,"39":-0.08678889827932548,"40":0.11250321442109622,"41":-0.010901359090950045,"42":0.10361242087465788,"43":0.180964653053104,"44":-0.19894866483761398,"45":0.16576416048243597,"46":-0.1318737162469147,"47":-0.024495935376554777,"48":-0.0780546991883722,"49":-0.08333229142998312,"50":0.09934683084074718,"51":0.20477200328100137,"52":-0.3211152583895963,"53":0.1558853413743645,"54":0.07943933829297353,"55":0.10272064506394508,"56":-0.11247744507185219,"57":0.0352834347287622,"58":0.10705328536319059,"59":0.18103091083783987,"60":-0.17709768149873092,"61":0.11325266015662164,"62":0.005393689520408563,"63":0.050151770756672445,"64":-0.057024268184063545,"65":0.07082685986776986,"66":0.24206795517876753,"67":0.04793958368578023,"68":-0.046296645256737275,"69":0.07039933602863017,"70":-0.004583818441715367,"71":0.14226923728378615,"72":-0.038216329556681194,"73":0.05459021710503031,"74":0.07851380897867967,"75":-0.06125806648677447,"76":0.06711727157220373,"77":0.15290640692054291,"78":0.13845264347455338,"79":0.17220151757220553,"80":0.3254852474434065,"81":-0.019650863100183828,"82":-0.21803252298728162,"83":0.12405962262772524,"84":-0.15891049428616888,"85":-0.06498083279338426,"86":-0.2571548189972884,"87":-0.19105029067547924,"88":0.041260957576839966,"89":-0.11924305427493684,"90":-0.20498250490642547,"91":0.2425876474541247,"92":-0.007439561655523045,"93":0.0821745840569744,"94":-0.35637539525204426,"95":-0.23284708712079547,"96":0.023691724599322953,"97":0.08962208033596537,"98":0.021587210774299134,"99":0.1641941719087054,"100":-0.12816667835375986,"101":0.07724532133250173,"102":-0.15954095905076177,"103":0.050157313848732406,"104":-0.03929025328399083,"105":-0.030395400444591113,"106":-0.014803605841806284,"107":0.21789301166705516,"108":0.061901002150035404,"109":0.1298469244978305,"110":0.02207121814092125,"111":-0.15736461244049402,"112":-0.016120811716507366,"113":-0.0009280405155472556,"114":-0.11531985838753281,"115":0.056340807487019376,"116":-0.07368749882616338,"117":0.11618568551363782,"118":0.004530488003927869,"119":-0.04132367049379218,"120":-0.06726760178572515,"121":-0.16932072472980478,"122":0.14446804825747908,"123":-0.21468366842739828,"124":-0.1284043029581381,"125":-0.015179571878931973,"126":0.05745598391711397,"127":0.06799393368942827,"128":0.03291655989654931,"129":-0.046710006981019805,"130":0.13269770557204252,"131":-0.11425913754646329,"132":0.06074323781993008,"133":-0.015489742932975482,"134":-0.16289292047066897,"135":-0.0684215880866997,"136":0.025844363541532505,"137":0.009056735521330858,"138":-0.0691463270423131,"139":-0.09964871934051633,"140":-0.10052461552657936,"141":-0.02615788356705126,"142":-0.09002933570864016,"143":-0.09305299065848957,"144":-0.00023923265398322286,"145":-0.18401029905645538,"146":-0.2482456080505637,"147":-0.03257613551384848,"148":0.12403818906953364,"149":-0.05056544803688914,"150":0.1420025202306949,"151":-0.005483644591288117,"152":-0.12433451297861808,"153":0.014911212771758015,"154":-0.10869604816895737,"155":-0.08860792776235503,"156":-0.24148893519039022,"157":-0.07170969194039199,"158":-0.035497798988862406,"159":0.1449868542350565,"160":-0.14413804606399205,"161":-0.011583658618257218,"162":-0.00009625610703818482,"163":0.03553649514841789,"164":-0.034750214124053734,"165":0.060433392943395656,"166":0.07192485492237763,"167":-0.10294369477305759,"168":-0.170695061813397,"169":0.009467211129030113,"170":0.07177961984555413,"171":-0.04329467312234825,"172":-0.049938040020967155,"173":0.011454856176172196,"174":0.0489495974820047,"175":-0.025038538075943213,"176":0.03875289549499914,"177":-0.03392130454138407,"178":-0.09038687002437387,"179":-0.1295797521707638,"180":0.017791432958310607,"181":-0.009273315799739045,"182":0.046613113976845116,"183":-0.09793304931030725,"184":-0.0030658861235255547,"185":0.027875291113987212,"186":-0.19345441495325186,"187":-0.19558371222460322,"188":-0.05501838718798629,"189":-0.1780288820120781,"190":-0.012659158142588828,"191":0.017944944334133742,"192":-0.03611661215598355,"193":-0.02020740119646926,"194":0.04629145011552231,"195":-0.08719469414660905,"196":-0.09786069341149131,"197":-0.03107818184267224,"198":-0.3065393456650195,"199":-0.185628102220849}}],"biases":{"sx":1,"sy":1,"depth":16,"w":{"0":0.0859709498569027,"1":0.09605492148253877,"2":0.09983773184530122,"3":0.1398800508728414,"4":-0.015012550583493786,"5":0.08850535364451675,"6":0.03241249476813436,"7":0.03705766969415234,"8":0.032117335824630826,"9":0.060025957797284854,"10":0.07176492520148257,"11":0.05391212404956576,"12":0.04399219611510564,"13":0.008190592190172796,"14":0.015039632696667797,"15":0.04775389094595067}}},{"out_depth":16,"out_sx":12,"out_sy":12,"layer_type":"relu"},{"sx":3,"sy":3,"stride":3,"in_depth":16,"out_depth":16,"out_sx":4,"out_sy":4,"layer_type":"pool","pad":0},{"out_depth":10,"out_sx":1,"out_sy":1,"layer_type":"fc","num_inputs":256,"l1_decay_mul":0,"l2_decay_mul":1,"filters":[{"sx":1,"sy":1,"depth":256,"w":{"0":-0.10271724120198987,"1":0.009443473507489083,"2":0.022555421444989402,"3":-0.028210926457491955,"4":-0.0029832064097319875,"5":-0.09455277433151899,"6":0.1593256343949344,"7":0.14858686508877858,"8":0.09773325005950471,"9":0.003005550910531418,"10":-0.061362367382548785,"11":0.10487857399644993,"12":-0.0734177952637999,"13":0.014894666396825332,"14":0.09749835606878654,"15":-0.07101846550511554,"16":0.05164010534422359,"17":-0.038686140424639144,"18":-0.04440725019248257,"19":-0.0038970537023302583,"20":0.07713919688775848,"21":0.022047516959305888,"22":0.05518235939049572,"23":-0.0011574050021670092,"24":-0.09702995268010524,"25":0.08614156727366243,"26":0.0003618007736058534,"27":-0.03956036026139454,"28":-0.03816117783885738,"29":0.011778876198120701,"30":-0.022364948231213537,"31":-0.042751930533601996,"32":-0.12051888169743182,"33":-0.05344772840211829,"34":-0.11097063581974088,"35":0.05800693672958813,"36":-0.27086899260739555,"37":0.04371166291185688,"38":-0.047557954326686774,"39":0.05788380069294672,"40":0.1339382868798966,"41":0.005604642521997241,"42":0.1023139896946284,"43":-0.05421137624684579,"44":-0.26903725148634333,"45":-0.0377934278400283,"46":0.006300351617789542,"47":-0.08161658647822723,"48":-0.026361916036968254,"49":-0.07778045286584288,"50":0.05001177693556057,"51":-0.0552822708918165,"52":-0.17677378570590505,"53":-0.08538304050428082,"54":0.044576506340433204,"55":-0.0074120590188967266,"56":0.07408364762272802,"57":0.05348560012244885,"58":-0.02463265257561705,"59":-0.06042148881664657,"60":0.09489120784179442,"61":-0.12953409370536076,"62":-0.03843594106093296,"63":-0.03323974129783385,"64":-0.07851045272766839,"65":0.0467424656670778,"66":-0.08418499347221944,"67":0.005341239368125316,"68":-0.31190736484117015,"69":0.0747053916097972,"70":-0.13813544210128348,"71":-0.11833226076709902,"72":0.12158953231017335,"73":0.07926505267924575,"74":-0.017512778184730488,"75":0.08189164105248666,"76":-0.06739659857228388,"77":-0.027297676654430354,"78":0.07790224797523627,"79":-0.018063892549283516,"80":-0.04099539576701423,"81":-0.03211527391073246,"82":-0.12925733645355386,"83":-0.2275693738959118,"84":-0.002833817772030547,"85":0.001225753726576999,"86":0.1682908257325052,"87":-0.10070069878620451,"88":0.038818263386413754,"89":0.004465838885408691,"90":-0.10927415141916812,"91":-0.04401356861200402,"92":0.2869193666193024,"93":-0.02681315921415174,"94":-0.16237305787543013,"95":0.06714211533917198,"96":-0.05905241753205478,"97":0.011667869710242373,"98":-0.10016098563337526,"99":0.16510857032161178,"100":0.23587331916046994,"101":0.09250476024736369,"102":0.030935732448352186,"103":-0.0904809017889649,"104":-0.12151320469447907,"105":0.06254298500937473,"106":-0.012943065649977688,"107":-0.04179064879171697,"108":-0.09003931362440169,"109":0.00292258104060596,"110":-0.10866644544275914,"111":0.017132184577974722,"112":-0.09969819492150334,"113":0.10956120580127861,"114":-0.0965173133877255,"115":0.0712864468428528,"116":-0.3293772063081801,"117":-0.10864356167970288,"118":0.0037521038570641225,"119":-0.11281506669296675,"120":0.160102982666474,"121":0.08009320085631057,"122":-0.06114868581589295,"123":-0.056492549000461405,"124":0.03653749638460604,"125":-0.18877649617996292,"126":-0.1107127720402753,"127":0.03160727227536668,"128":0.0892959366583879,"129":0.08989682740715592,"130":-0.12370604262619422,"131":0.037297502914257756,"132":-0.2184925342575183,"133":0.16299346798739078,"134":-0.1463325215965151,"135":-0.06338312679800037,"136":0.03373118164211307,"137":-0.0567529231380366,"138":-0.28980443738030176,"139":0.21487395791102074,"140":-0.020782868809394735,"141":-0.08066289898734333,"142":-0.09883824261291718,"143":-0.03605107777202684,"144":-0.07788320464218423,"145":-0.1108225778788097,"146":-0.10296826220682362,"147":-0.017891701060427884,"148":-0.06845051972552077,"149":-0.0353315641556034,"150":0.02942797423335186,"151":-0.052613521450232056,"152":0.035052870884749905,"153":0.005191844936482276,"154":-0.04679755489574279,"155":0.03933273154489334,"156":0.2143120773243861,"157":0.0430281383525721,"158":-0.026118363119404384,"159":-0.029036124634395553,"160":0.009036180860856474,"161":-0.21111806090421656,"162":-0.09382100566227577,"163":-0.0765241095935409,"164":-0.11881833209930615,"165":0.007024524756782725,"166":0.03886668452654709,"167":-0.2840248698605941,"168":-0.15983028587872045,"169":-0.0035727361692504058,"170":-0.07208784779934463,"171":0.11100496069177936,"172":-0.11690550745343894,"173":-0.032714180175741944,"174":0.09691471573859294,"175":-0.20767779415978563,"176":0.17588489997607357,"177":0.005608894890739498,"178":0.029084915074683658,"179":0.10260244221665965,"180":0.043204652578185926,"181":-0.04207410517390293,"182":0.013544690178215578,"183":-0.2246316150093193,"184":0.07532213596548279,"185":0.061110019441162095,"186":-0.10890013255768698,"187":0.08207399450383158,"188":0.14337749364437954,"189":0.0712203886071206,"190":-0.1805444123107322,"191":-0.04758335110914335,"192":-0.043683238158662374,"193":-0.02518412553959075,"194":-0.06911739488643787,"195":0.125457967149803,"196":0.06760833975252831,"197":-0.12284295285700875,"198":0.044453964732033835,"199":0.014609029058204806,"200":-0.008480211751645686,"201":-0.022609064956706983,"202":-0.1403736150513636,"203":0.0794089514576157,"204":-0.027432957870343617,"205":0.04129717911150061,"206":-0.12774595368292121,"207":0.018215181333923518,"208":-0.018376586939172716,"209":0.00021726287267800968,"210":0.15281856011110553,"211":0.1242935348727227,"212":0.04008350928145049,"213":-0.10101783345581028,"214":0.051071346599076146,"215":-0.02912797371004831,"216":-0.008246327189665894,"217":-0.10255699406271306,"218":-0.12077978493124714,"219":-0.1117580027945133,"220":-0.2439105407144067,"221":-0.053818749690739145,"222":-0.021194640544689516,"223":-0.07020231440651102,"224":-0.06673136444586535,"225":0.03351347871019951,"226":-0.002946109248666205,"227":-0.2019927591830857,"228":0.1042960715993109,"229":-0.2000363884018736,"230":-0.01503781891368249,"231":0.02739772728468384,"232":-0.17406296857791814,"233":-0.0621252914018586,"234":0.1169131943670001,"235":0.04347972070710453,"236":-0.19998284520519538,"237":0.07385438805308014,"238":0.11322133312114911,"239":-0.01494188864505138,"240":0.0466210410969388,"241":-0.1911403200287642,"242":-0.14283739781732308,"243":-0.1375305282687452,"244":0.14277617019260228,"245":-0.15646699333723024,"246":0.030116367496768354,"247":-0.14515351552754746,"248":0.007782766824883605,"249":0.009975158616602206,"250":-0.005426266549679292,"251":0.01272223434075411,"252":0.011894710754265734,"253":0.09482415785958434,"254":0.03926782584262677,"255":0.07989702848579346}},{"sx":1,"sy":1,"depth":256,"w":{"0":-0.009649602735617768,"1":-0.19614434628276023,"2":-0.1460401517906662,"3":-0.11348206497778836,"4":-0.024872201628427907,"5":-0.0007374941870235142,"6":0.035973599895075904,"7":-0.1391399030816028,"8":-0.06374282383325951,"9":0.06060526367568097,"10":-0.0006419415319743962,"11":0.009215070105541763,"12":-0.039331597324433566,"13":-0.10262346538480387,"14":-0.1359530893465367,"15":-0.03669719178669766,"16":-0.13070822090140077,"17":0.07954564311795378,"18":-0.10501137475842795,"19":-0.03699678982321634,"20":-0.03225492618752366,"21":0.11500590738370106,"22":0.0064444146436788054,"23":-0.04430878923607667,"24":-0.1001757707655759,"25":0.02258159842144153,"26":-0.04461758632528986,"27":0.027161093611965545,"28":0.10179844756786835,"29":-0.07220087888431881,"30":-0.04162622611226373,"31":-0.01654781020687582,"32":-0.1685563662271893,"33":-0.09858741264531781,"34":-0.2956154006455329,"35":0.10042901553624513,"36":0.04887292639201231,"37":0.10846225624741819,"38":0.10961238180411724,"39":-0.10805463341277882,"40":0.015184999537692064,"41":0.061447358208845816,"42":-0.14017113132003883,"43":0.10945408139516648,"44":0.0966396679578215,"45":0.05000676282290735,"46":-0.07933557229344462,"47":-0.1284215342056184,"48":0.030177426707965874,"49":-0.028270749608874834,"50":-0.13955766945791157,"51":0.10852544460224658,"52":0.10061665726053359,"53":0.1152290052189305,"54":0.030471856589345692,"55":-0.12397811126790323,"56":0.12356167870980994,"57":-0.090422394525434,"58":0.08206323359544179,"59":0.01753982365306195,"60":-0.02347271028485692,"61":0.0784829760922589,"62":0.010967268741698118,"63":0.004543059442632972,"64":-0.08055086659411073,"65":-0.21079216862051864,"66":-0.14153884786436652,"67":-0.16296306604426408,"68":0.11110845464994067,"69":-0.1738242481780386,"70":-0.06790602285069737,"71":-0.10780219991596256,"72":-0.02927514086957882,"73":-0.0937007965215718,"74":-0.21004426565260112,"75":-0.2789114302269179,"76":0.03524368659607173,"77":-0.080232449171434,"78":-0.1639264756491207,"79":-0.04556573844288588,"80":0.019050916156627337,"81":0.1407053539776799,"82":-0.14085390520536706,"83":0.03804653088429603,"84":0.017083402967676492,"85":0.040032182907928926,"86":-0.12964343505500336,"87":0.10655585263365824,"88":-0.18900549713329515,"89":-0.006202361396450156,"90":-0.04610832688529948,"91":-0.04551703726711541,"92":-0.016321504688235563,"93":-0.030846166206813765,"94":-0.043340356365883514,